0.6463439040010943 0.23206778333734682 2.152823119673076 0.7349161211751636 0.7730730595957941 -0.2682763729560848 -0.3621555981061425 -0.5324870385762281 0.8892027155498776 -1.1480870402670442 -1.7872643252188198 0.08530111976602575 -0.7146906242961887 0.03626559440415064 1.9236826317770024 0.6585680280816633 -1.4138587582112299 -2.317781654701015 1.9392642997832241 0.12117046835650108 -1.2020924925672771 0.31379763951216677 -0.3669959611970805 -0.8638079348117643 -2.2604175656765895 -0.8116958399451168 -0.5957529990173747 -0.510626999807273 1.437243582348609 0.8729717173220224 0.8014231172623991 0.13856158156008389 0.4660161496467407 2.9719963016785607 -1.2733765960362613 -0.7316646791191679 -1.2776872425051655 -1.0820729900875257 -1.0547064587540462 -1.3377022923641133 -1.3575433816433788 1.7838832598305807 0.20706470115690798 0.40545561528789903 -1.0714885146776756 0.6016489345108043 -0.48429819269232227 0.825292106429019 1.9067513517242431 2.0355618594146545 -0.7553560135489398 0.7488376092022644 1.9319957410739175 -3.3279848505653593 1.2742990952058177 1.1378512264613436 -1.3414551397191101 1.7526396889603437 0.13423988489016347 1.038639360704247 -0.9413978451076426 1.1778586038199046 0.02268765840064565 -0.37924419834287915 -0.2638399102875456 -1.8073099818114593 2.2894647604912737 -1.1720696902110888 0.6544441582817754 0.3102609829069449 -0.3715041194987617 -0.42415491222311047 -0.4000243160887894 -0.1451675135551064 1.411127598195465 -1.355912940474324 -0.5002583486681208 -2.257477250635583 0.5730942244281471 0.44121868094782385 0.6942298943161342 -0.8728250312318399 0.05694666411154029 0.9931770782060124 1.3405607618529118 -0.24819174126996807 0.7453049150423947 0.36087340117094124 -0.13604944765127253 0.17674541463175003 0.9953871723375358 0.8825834996864218 -1.1135054503357145 -0.03598841572400528 1.5476822465117368 -0.6724649712958458 1.1782043712819594 0.06872639257810548 1.3897072456775668 -1.2276793153262497 
-0.847469938230299 1.2138410117964176 -1.3150910197823684 -0.17231689988751372 0.5188436056779819 0.12843829389343867 0.676134393070011 0.3711904511830042 1.508298191094018 0.5779006235285925 1.1240887636384422 -1.3382078932544168 -0.2363995052633699 0.3557155225334315 -0.7257930210980612 -0.23331263841305683 1.4641763348322763 -0.22521812033805289 -0.6130196711675859 -1.3345814723103557 0.1991892564588907 0.220056589639219 -1.5519356122578563 -0.46977533859350423 0.7033543309409599 1.5581851151168318 0.39286929240174046 0.8816504028130685 -0.3422989906538162 -1.9978482515823333 -0.1607610453552974 1.670281349313061 -0.7096147843566972 0.6032975903849124 0.04221476762172103 -0.33540983283312514 0.6454899636087272 -1.0822216293894746 -1.1853165088368225 0.6690768968899566 1.111705383618601 1.617153096986477 0.04495672022726216 -1.2792095437021633 -1.3243027549657387 1.1835219890541502 -0.49711969070867223 1.8001187887813863 1.2022415653064797 -1.4931175660570795 0.9791997606097599 -0.45177502498748506 -0.017750409200032055 0.39178092099309586 -0.35735052774211096 0.501544836651705 -0.5273109749240726 0.7929536270639911 1.2879833913572976 -0.3851817042009626 0.5567433877327871 0.5095213649632794 -1.3623152685292845 0.801515167684949 -1.0000420769621348 -0.06632049905933203 0.4681841351698801 0.5034863877510573 -0.6540517945414022 0.7270317878228666 0.4500369710223464 0.48989245877532395 1.8030122193394025 -0.807033181341217 -0.5367536941177466 -0.14611526243608838 -0.16320334591239602 0.6952058877449845 -0.34803482933503793 1.2888080673874809 -0.8928956543761336 0.3366926612729106 -0.31021221584931624 0.8271683843669089 -0.6155129029260219 0.4809441825732666 0.0248993365925302 0.6059329710272304 -0.4160038550367232 -1.6908250145385553 -1.115752684110717 0.357029370108846 0.6659797558095186 -1.3837525401319917 -0.20079478223051617 -1.0136963185566024 -0.09585199502865953 0.21099064106226317 0.5710245944455644 0.04790086949458358 -1.700800567635015 0.5144279404926351 1.3988029134761495 1.284841808008206 0.06975598887973262 0.16603141589927772 1.3691784469167705 -0.3812800647357751 0.567437852704875 0.9860714879015992 -0.4941105924433633 -0.7290132978224174 1.3773413937578733 -0.9779202997926965 0.7223235205876289 1.7937044519535734 0.9042073806001213 -1.0924664589399298 0.7031261474129833 0.0627593150970814 0.48616775231368553 -0.7759102224334334 2.39887179907764 -1.3975328797914182 -0.21714343164757563 -0.67908015858905 -0.13893472913250718 -1.4290266641903935 0.3576827369384729 0.9166732942594854 -1.1854383606997518 1.116658649218537 0.9521577106599108 0.2743727630963917 -0.771888754180962 0.14976570041857576 -0.31233338598276034 0.9970413651388097 -0.47980058668166725 -0.25233260830466314 1.1548704363255373 -0.5481933709112989 0.23826527798808994 1.3433673858910893 -1.435160641795905 -0.21995815731894175 -0.0013887977247459187 -1.1372053580534711 -1.3147987252643683 -0.29147777831148053 -1.173479264766449 0.8895320409696543 -0.05310874448762271 1.2827562575618312 1.8065805341695167 0.4894346133599228 -0.2642348593713187 -0.009629153123580972 0.35126868191186483 2.021978800015165 1.395785025687578 0.17144311010687363 -0.5529285429331593 -0.58965778620574 2.05140206335973 -0.010133551460301229 -0.059068123372931575 0.5599610188045978 -1.0208248887792342 -1.7539417466887426 -0.9456266989392725 -0.12899025197135552 0.3654798685051612 0.4555793083023369 0.24908560740625266 -0.6687317370542502 -1.0833732140007695 -0.6380780795010048 0.056161047511395744 -3.069337901894697 0.8158134577860169 2.6245793550654297 0.7835686036307822 0.5264974381583403 -1.0144475321923114 -0.7418077325323652 1.2364308918109979 -0.5853395593915691 -1.497424797241908 -2.09408696341581 0.07253405669145398 -1.1938927658857559 0.34751484779528563 -1.0256509039775965 -0.7733104075346757 0.8882697362775587 -0.49073925527552215 -0.23273135393214028 -1.023073083671668 -0.28616001247728795 -1.5715318243906058 -0.1827264751383338 0.18777398945141527 0.7316109382335421 -0.24623739778987955 0.9902704208286278 -1.4904937602020267 -0.2797855266816923 -0.1535877689035942 -0.8987542628788115 -1.2848512169029824 0.7784582228471983 -0.05483578290525868 0.792294005422109 0.06023448932801901 0.5036164998465791 1.1370618624723137 -2.7808869210540927 0.20752977437273332 -0.43438548795473214 1.9025734677051194 -0.5256715932201381 1.6148863249027128 -0.5837854345815352 0.6130456034974999 0.7691682345671704 1.3120591803334276 0.7968129229961913 -0.41587323858198155 -0.051179420919929094 1.0564084326088743 -0.44188502337079816 -0.9581274175016018 0.4201642712430078 -0.9520511000491816 -0.1268403742619514 -0.19004619484921476 0.4949985262102449 0.4346038536153613 -0.6788739966406393 0.18824547490476223 -0.19305594704908127 -1.6992813683919958 0.7432486273799208 -0.7896573719643971 0.8274738699998393 0.6677777214119851 -0.10229351606355376 0.16892466255465963 0.9721758821549377 1.5687979199682436 -0.8365231996666513 1.7544273570019282 0.04973681116768922 0.9592271278851221 0.20342280067002907 -0.2592574524276591 0.06272351546146661 -1.4350272750445665 0.5532308544332066 -0.738199319010528 -0.30225588317228086 -0.6580690602585543 0.5027961852111146 0.28709258417047734 -0.8898744860949245 1.4316729171537665 0.520508962375619 0.4528161832422385 -0.4471048305053209 -0.07004748142417207 -1.4112478905378194 -0.33160676749124857 -1.5370334105553094 1.2763353344250103 2.109813797616449 0.5669321840147783 0.31802964827704316 0.8606379680180483 0.557438939437437 -0.1761177080400536 -0.6474533396835306 0.31020917033501383 -0.30259962553036207 0.8543208517438796 -0.5428224553039582 -0.9465256566435282 -1.4432487154111708 -2.084214585426892 1.2124208514004533 1.0535827989062139 0.08937325917949822 1.0580467146511443 -1.529331938453876 1.2778476470216993 0.8482587399280989 0.7992566681052073 -1.3310606466496624 -0.44659838908680843 0.8819493528038921 0.41434097179710405 0.4857344287926907 -0.8267651699541737 0.6066089519721845 0.01286505578720821 -0.5243535093766065 0.3938186095557305 0.48649241397073084 0.1600342000574491 -1.2234232872327206 -0.004820623784448668 -2.3372818727525 -0.08444943399370174 -0.23244603338208908 0.02742967411049379 -0.6376369591111928 -0.7816053802874694 -1.8310391852050971 -0.13358797815494042 1.9141339187621755 0.6892528785985483 0.42901999281517567 -1.7978232920439097 -0.3665968507923657 1.061230093924361 -1.6153288414238274 -1.9306056347144498 0.7526350081247016 0.42268197973790506 -0.42179543501641464 -0.4614509552766756 -1.6627884570274953 1.1292040720279812 -0.3433961975379212 -0.35173284192128124 -0.7727645646327683 0.37650441487536546 -0.9639469395122457 0.2542682832160519 -0.7230937351329689 -1.610428600960516 0.1445266793934721 -0.292780508930396 0.23178301187207023 -2.4576416640680336 -0.4562933342015643 -0.8487311355742214 1.6945309562035744 0.3554586228634262 1.3541181844029986 0.3407561317068678 1.0682634757219789 1.4542133271500841 0.6129729479638982 -0.8182320512973489 1.1045138855906278 1.1068337284829448 -0.016946787867752427 -0.39020876600373844 0.2990416062611673 0.1538833983652918 0.028188236410754942 -0.1611663973425341 0.0038136190794457285 -0.34669238109698053 -0.1891133109210541 1.3396134233864352 -0.47318783340697573 -0.5720177141191183 -0.7349658424503488 0.23726010785968796 -1.683649176148262 -0.628442338667671 -2.366528950754385 -0.32926124013728847 1.2791705836434333 0.600380949442376 0.3126690127965862 0.19579141462351507 1.1016368726406909 0.41930791355748076 0.43500553947481874 -0.3197679171699577 0.6052200639800521 0.16800195880617905 -0.1875479846058502 -1.7252850331109937 -1.500174417480853 -0.19048171662411476 0.14313826776579044 -1.303869649565533 0.49544008393824246 -1.3602729866435903 1.0943506915226404 0.11316693052127946 -1.0760113442397297 0.8419158601568953 -0.9223196231712065 -1.1079733487355279 -0.027831337092125496 0.6342694631749102 -1.9247856700795474 -1.0595268484166631 -0.4660403013991614 -1.462484694400283 -0.07247891094274539 0.0645672070757835 0.08924959553018497 0.11417154667464818 0.8761543610981704 -1.4275167331594634 -0.12649103578362772 1.196586246951796 -0.25270901921438965 -0.04947956169640174 -0.20854919058992313 0.7848115657844302 -1.3600237751231072 -0.37555453750511236 0.7361627204286844 -1.8262139856589181 -0.8257404679809942 0.24149080448044866 -0.16268661082573918 -0.40176978284669784 -0.004478152939473775 0.4984684114993703 0.02773408689448873 -0.8017889931842938 -1.1327927267750795 -0.5186504912897639 -1.0886324864759074 -1.2383077048205688 0.8265272173757571 1.0651371343220217 -1.7140560185827511 -1.6455143700111365 1.1874680898596137 -0.14918233983378168 0.5711610576500483 -0.8626387877045736 1.5189522502794843 1.1763798441615758 2.8188343826814344 -0.6778460241194988 -0.40818436858140844 -0.1935500774118278 -0.3395927290053132 0.8759974747059006 -1.16480209757237 0.8003296549280134 1.6680126474167327 -0.38743661498125415 0.7421288465668132 0.26094358333936973 1.0458990357478937 -0.803515966813339 0.06086935833962794 -1.7077588578997676 0.7941391960309528 -0.22418091534350887 0.08051077350924707 0.7553203279068009 1.301734020288849 0.6695972008691867 -0.4892109439259146 -0.1611393391576062 -0.5854715162560936 -0.31348674047582553 -1.9599766881714482 -0.405407347357603 0.10977745922549605 0.7838530115693805 0.1892685617627341 0.6665727226879166 -0.5524706308077955 0.3736877043935603 0.1890463787985632 -0.05945407693878289 -0.7217979222577451 0.9407450140619242 1.1141075447290756 0.9697793977048532 -0.5628168365646243 0.005779826051527799 -0.7663942988535718 0.8215042147626238 0.0075790863941608295 0.17098136928388455 -0.3059751085051468 -0.9824432828123871 0.2122284276969067 -0.49782993853824836 -0.9271727443317487 1.11925909127106 0.7786462843262292 0.7406029842928065 1.746183565300837 -2.3130683391077382 -0.45893572864223786 0.025458002692175335 -1.1112787181791586 1.8599310329375132 -1.2522204666564465 1.5094250275675072 -1.7523967298249024 0.7420402128271751 -0.9777158239324791 -1.3162805014625747 0.7006905163432876 -0.06996007567212613 -1.9517437289029052 -0.8534736041079357 -0.005354343962776433 0.6808311751931839 -0.8726509279828008 -0.6258771461303942 1.0157691396489672 -0.43046603329158306 0.7331302440338594 0.6702124950784502 1.2233095285423194 -0.9180773565927537 -0.7453825844919634 1.6000829733911535 -2.158577639498693 0.03813721318091966 -1.1994020478288308 -1.1082996263591025 0.33266227619302036 0.04492253383538368 -0.25383610889777086 1.2900467554910362 -0.7838374436204101 -0.7194972327307921 0.535259645872791 1.0161618835882877 0.24175002693180414 -2.2919991969703473 0.4334841276606647 0.26252663966085205 -1.1967550486276464 -0.6797929047858937 1.104165177221201 0.8365228061172791 0.4301317649293341 0.8543136848271335 -0.09618966415424898 -0.483756415838742 -0.7325007875678685 -0.2117226994261722 -0.5068865639525629 1.5514370731371905 0.5233895499870177 -0.23586904010447834 -1.4304012626438471 0.5243327560166711 0.7161104280418432 0.1029084725425848 -0.2582779315746471 1.4188715439704063 0.38240033921998734 -0.05705437549096332 -1.7458157453969372 0.04130123979782448 0.17053046991461382 0.812849040423816 0.5605405764690435 0.0549682641386834 -1.390787869713104 -0.4207847416298452 0.8737896476284742 -2.830980815226863 -1.9024396174210232 -0.34347176424686104 -0.2003566073746522 1.1538564473574209 1.7040410719286547 -0.5569713116943261 -1.7913306535239524 -0.07149109670015959 0.36746957387323903 -1.041025116956964 -1.6288270818646746 0.18706437365595568 0.6326243703529788 -0.605096838228446 0.556653063875602 -0.3633036565640118 2.7469497033260613 -1.2508173520171724 0.6566075437290062 -1.0750948786198682 0.061297454959339845 -0.6362652209470565 0.07969218155102455 0.030300550752655527 -0.15933300726149358 -0.7670203825119016 0.2550063726330225 0.2962900790744714 0.7510135886025027 -0.15826103892560617 -0.7231961608734685 0.35806311346252945 -2.5208274495414007 0.4614771590846462 -0.3999961280665768 -1.1967360875312643 -0.7156373907718016 -1.3802048424650037 -0.5745065911005898 -0.3094421352781929 -0.02496030748611935 -2.1278900196400823 -1.037955715059828 0.4727516147194275 0.08535220208121555 1.0146816209897545 -2.087606492103955 -0.7736454771632417 0.43461931728702724 -0.015191608514215978 -0.3563738459594058 -0.167195659074315 -1.3548418742217774 0.2502149065098429 0.37997359229806416 0.0842585659935267 -1.3221380028211747 -0.053418601983342126 -0.1892597439793428 -0.8451020589193127 -1.0302792577020297 0.8474425000985596 -1.1840582540063684 0.6799318391356644 -2.6845827354347493 0.08148414708767142 -1.7331022365328272 -0.7590377346673146 -0.6789890383892218 0.4548473298502283 2.380286746685603 -0.1437636503986213 -0.8562289704819825 1.6065800320422652 -1.2546770627768666 0.672602430667324 1.724156859203316 0.15552435711224538 -1.5331589821686562 0.1369735127809661 -2.4376683823835696 -0.5414810165721212 0.20453878858335076 1.344703463080427 1.158585838139022 1.8162940866014075 -1.575073520216997 0.19962809650347121 2.044463786270896 1.0526883986115079 0.3637956623185913 -1.6255835411405073 -0.42717251518991195 -0.4842868850958964 1.1495795804822517 -1.148718992906275 0.011271613272771625 -0.6008425747376904 0.7566041779493429 -0.4226925884108718 -0.6884746429034541 -1.4625202055420994 0.6020954423673514 0.665663122424789 -0.6437820515267951 -1.2426198436129838 0.5086065058542446 0.38365660029844245 -0.12758574457607563 -0.5973127304812322 -1.1387815627315587 0.1727372096900912 0.21882886195242726 -0.7812650814808326 -1.1653128137946707 -0.29272248455053335 -0.6185014128454075 -0.6585179317969845 -1.807421804856346 -1.045598789182414 -0.17350647274883696 0.5725129449774841 2.6561223206868996 0.4707555733345985 0.7641944485456046 1.53574974280474 -0.46809268289197165 -1.1461236446690584 0.8806526352146458 -0.2621561786500429 1.620916391090898 -1.0583694653652613 0.5417088848152531 0.6664154315714891 -0.9646300510416499 0.1050078198839393 -1.1463408789838894 1.1442643679415714 0.1651072482002353 -0.7138277436830077 -1.476668751914045 1.578376967952135 -0.5575027660405746 0.970992691283408 -1.4420956294495177 0.5161219918600116 0.9579880196336 0.4655101103403243 0.6746740307556014 -1.7413265544236978 0.7852525935560709 -1.9949544843271494 1.4206672729809804 0.6158735496953481 0.5503041893430876 -0.9801113139156067 2.2105690505015425 -1.9306143394225372 -0.23244796949978316 0.47328505556661626 3.363909337312408 -0.12061787386186874 1.8324739725456374 1.7134707661771726 -1.5233507124955015 1.504418351537316 -1.1798218402690017 -0.7964851064169295 0.7441472184429673 -0.5419050824627942 0.5204953175572042 -1.1245002402977837 0.3627235260574943 1.1467287517421467 1.658512154600571 0.7680208752696155 0.9881551187129698 0.07531580985381078 -0.8085095051706185 0.8958009722204551 0.4068591862756598 -0.9738059911871421 -0.9655700002494432 -0.15453692799589921 1.1471656857457948 1.694138465356943 -0.8659856708468084 -0.12324146563755961 -0.39991031881538164 -0.07417416776171885 0.9276642586795107 0.43885682091816597 -0.010154038498154954 -1.3681467345547222 0.41269978729969414 1.260570418473943 1.7717972483502986 0.9273710794683703 -2.4690882319269014 0.179056805451921 1.47161038618487 2.3796123069163 -0.37853564582752847 -0.1464484564403061 1.1257910136338125 0.5296980647804674 0.0530465217994858 0.4510336328669452 2.2045951404835744 1.973230920633903 -2.8740841675822986 
-0.2796397317676171 -0.21466434220024636 0.9998076565801656 0.8419408460971911 -0.9218719660486249 1.5175902637887064 0.5007256312086712 1.1226717168754863 -1.2213605013647875 -0.5716680597164447 0.5781163342879949 1.4140477596174956 -1.7565986900780242 1.152234217149231 1.173901892979234 1.3503148848336024 0.9884779050086151 -1.3465206973217088 1.4928595746510176 0.8421929563625107 0.383177121010231 0.1715147487529863 -1.176718798324864 1.540218000806566 -1.676400702894 0.5975153146244904 1.1771180393363747 -1.4323458982183426 1.1203062799936316 0.304732703806764 1.305585690227331 0.47047689314056557 -1.2178016400090088 0.4392688225094539 0.6645819823039485 -0.48239763007683906 -0.11876542482350828 -0.5139727180376581 -0.7866052347341901 -0.5775575262118142 0.6702811315726153 2.0642255398453138 0.42377782415739623 0.9126189812362484 -0.7450963587325928 1.5846311119135024 -0.5610294136977148 1.0253336583980999 -0.6017074094506977 0.2992303700445764 -1.2017185545415838 -0.2126421969183092 -0.21214357109919524 0.6271596998546176 1.0184133449392152 -1.1041141797877851 -1.8724408309957772 -0.014449903108144053 0.013566128992227304 -0.5920229291891191 -2.0443937840968904 0.7637321995284566 -2.0855875323046678 -0.623081324569925 0.5267090815442481 0.4384231743338466 -0.5694630242966318 0.11089904286570518 -0.2985063088955225 -0.9945232238051642 -1.8498457464242108 -1.0058769050118952 0.8615808253817697 1.5742646182813977 0.36748420991361036 0.9000717497233678 0.05676287332804817 0.15827262890572003 0.4599824938678701 0.8518259780233862 -1.373115136374363 0.8564089116534732 -0.1756809905788677 0.7671856297618211 0.7569279374036261 0.5793728915378558 -0.6075794332866306 -1.3699011663622875 -0.39032561960794 0.4542654454341209 0.7259307840186154 0.13606741339670916 0.8175383853367593 1.3913434472232606 0.6801030468771959 -0.1921842027063904 0.8895146782072761 0.45333310832305995 -0.9214237229909161 0.3685274082619675 -0.7227421278627468 0.4398534347144603 0.11891423131101776 -0.6448145527076725 0.7555722072025608 0.5507078204187861 -0.6633939201590591 0.4379373236391613 -1.4042208976403674 -0.3457967484997537 -0.1565142391189876 -0.012505043950206551 -0.8602134011324238 -0.9782646029832213 0.7763112706092257 0.266339728354415 0.052507745973904424 0.04060816398078 1.6486394009189298 -0.709930786015152 0.022780542541969862 0.0012323734742213685 -1.0389886070841667 0.37428559157755903 -0.08779175899588887 -0.49149676194351355 -0.9055303189923517 -0.16856676946259205 -1.9931351555657848 1.891809001314576 -0.3785332793093171 -1.1673908973163767 0.6220678963387929 0.35322739211360427 -0.5246529877450787 -0.10916760401153724 -0.488524265708497 -0.21440244638067055 0.2545934557474092 2.7768544649625175 0.14446905539878374 0.25065714994704835 -0.7712423176517585 -0.2263986239220599 1.2671757906303898 -0.6825345093138193 -0.46090374423346064 -2.576827168099409 1.861483822340877 1.49605298950475 -0.5870244157275963 -1.1725341130847668 -0.5742634487128124 0.42443851840282276 0.07850145046882612 -1.1397320951768053 1.4603225570963922 0.7404465947712432 0.2961998933196154 0.19927584206711987 0.7188182812234373 -0.8777368257557875 -0.3092763240104206 -1.585750896091653 -0.9696877322506027 -1.4048829891423291 -0.6921872159392803 0.9773794145664266 0.8308019438563449 0.529604873156428 -0.38281779387322595 -0.9052191087238914 1.8916980709070221 1.120331127637112 0.7607458291795034 0.9581903832224427 0.5172498940333204 1.8602436208987732 -1.2683427442760766 -0.9284525708014519 -0.9074861979977312 0.27043957823159037 -0.10929194001385878 0.16081871079345214 1.8525527085697566 -0.5544461473748615 -1.3530359956499503 -0.42987265899067023 1.370436295878169 -0.16541015745147566 0.6191259899542412 1.2219799105006084 0.7481016045188351 -0.4579135893592763 -0.6336447834844178 0.45943604302365604 0.2990081001438095 -0.002999865576572818 -0.21690307269250025 -2.56552343402759 0.6987505907353275 0.1584679304774122 1.2298949847965952 -0.36521418555006696 1.1673095207364834 -1.3046738875323387 -1.6128557432372044 1.402649222252434 -0.28971888246855954 -1.5586534945326451 -1.1095625493316479 1.017091861219844 0.6088316949603617 -0.4185150118263488 0.07604464030052055 -0.7438773842786102 -1.294768947722942 -1.1855123415337405 -1.073346755285656 -0.9040381106174366 0.3099756480790698 0.22266214706456605 1.4099941624620314 -2.041098854253622 -1.194442670236174 2.572672772473812 -0.4691048311054633 -0.05337574823842805 -0.5972186521166881 0.016001547244790644 1.8467413336380682 -2.323057521743547 1.6728137253529356 1.6700493335627156 -0.6228218668169399 0.8831310456333489 -0.2709582038476317 1.0803828275118033 -0.07652516767520455 1.633301746476417 1.6527914480949442 0.8726851594423886 0.8937366974095489 0.13218596183670978 -0.36556562622047023 -0.18245718521593615 -0.6046659981401452 1.5856603477166453 -0.8583010558704458 -1.1559929593261828 -1.5880564369329284 -0.2961489682527307 -0.9045029232039133 -0.45372645190760175 0.41627172502365206 0.7267970416608402 0.9120306641903206 0.8198051588986327 -0.4227564677132806 -0.27877387586932634 1.4032100510547536 0.6699405538148712 1.102550498698379 1.0754652465282784 0.6685376521165908 -1.580946481324662 0.32898158680613343 -1.6184030815918993 -0.7373412187253752 -0.7915498176435134 1.0132552851307555 -0.1909197877228256 -0.4120209239232915 0.7865538318978911 0.8795107553713752 0.35907875803712885 -1.8008782755487693 0.7952308127597758 0.8651991508820005 -0.7666751246380873 0.9464055800223831 1.0901268238935768 0.6479493202496424 1.35658876119789 -0.06775918361717419 0.5448829169983135 -0.33498688922989234 -0.6923618734898493 -0.228066376155668 -0.6795523264642561 1.6603508668256621 1.672520721863853 -2.066462197425043 1.4735103834051424 -0.17213278213419672 0.797968427944447 -0.4734480543753143 -0.8939424703316673 -0.0018046805615562957 2.1622315913691352 -0.08065532263891034 0.8535364015291321 -1.465162131903362 -0.11091080684516906 0.7212234688557448 0.008089373899350294 -0.7024989999587122 0.6261963721710037 -0.5223654169349663 0.6153828904052284 -0.4392650511837168 -0.524115103014284 0.34174539473738613 -1.141357706202112 -0.004223329237962556 0.004964533611688551 -3.4867965599113493 0.619569813960392 1.4603178091858797 0.004455476705621288 1.6061764423526153 -0.05003202989631443 0.35601284078003076 0.13781851006851858 0.10071782792107754 1.1905574252340492 0.12367444511658274 0.9623388177400296 -1.784070661956895 -0.9103676406977185 -1.4359993661051424 -0.16354686076724229 -0.5640910338337449 -0.558375032043255 1.4087166774980124 -0.8293995916764377 -1.630180329341896 0.8623348238166556 -0.04678030356971363 0.41852261065423646 -0.3403680064865601 1.376628350491253 -0.3533659744490753 0.2515179825528368 0.11924698054673104 0.539247786130011 -0.9342414064113629 -0.15174470623640157 1.0385781905089884 0.5695726885591726 2.595769968657699 1.1611995138886313 0.11024589150410989 0.9248404761131556 -0.0198425011562753 1.2344998523616553 -1.4827661543101653 0.9129786542960575 -0.5882158817080425 -1.1148810743474542 -0.46132605745331684 1.4658050064225174 0.3232866639546486 -0.303004182124936 -0.0066580775278428225 -0.1776870695889021 -0.9935638617707474 -0.6165593254012893 -2.038206012921356 -0.35414790725577594 -0.47294931744165014 -0.4915124187674647 0.820337852602762 0.832986973272675 -0.6687150616904072 0.02643969915043671 -0.04667340141964979 -0.6994728589880621 1.370831146902114 1.1290714712621768 -0.3377288368692339 -1.6914592970915123 1.5678668849092199 -1.4218808714994582 0.8826460925665421 -0.8638060876854506 -1.0905820757232163 -1.0210346043248453 0.21185633749098412 -2.0116522011759943 0.22993142744055436 0.9899249518142901 0.7568070373317539 1.112753003071093 -0.5380815437463291 -0.4345636244422369 -0.47059958213784014 -0.3527501255646881 -0.4372566499283743 -0.8630023726295037 -1.668323884430527 -0.3503111528802456 1.0308746009218495 0.9335686158440938 1.3487434260215925 0.05133602579278586 0.001602500236429684 -1.0317534726804864 0.5238930860446522 -0.21185951761255023 -0.3181676378488778 -1.4093151155391568 -1.249950261300053 -0.5088736047829631 0.32329308053207023 -0.8910833537651396 -1.0785479680863523 -0.13771688519072706 0.22158692964595386 -0.628322993203267 1.5170668848359343 -0.7347591018727442 2.0380107113212906 -0.9201866028122136 0.9261061157342779 2.1136384376393043 0.44037745606609124 -0.6916669872362595 1.0530535524321476 2.574254983257378 -0.09776676469778525 -0.2569890808984795 0.403431977572955 -1.3140310134468591 -0.6856251391224937 -0.839098511691121 -0.6384455226007056 -1.2720154557534906 -0.6983706428910591 -0.6781879360869196 -0.9724283460583212 0.32487910682782695 -1.3171098814089268 -0.6800986182002402 -0.33934452422580613 0.49649919885151816 -0.626433408763418 -0.06834514286534156 -0.853336221990971 -0.6837265421310365 -0.5224656870649258 -2.96821356042503 -1.8611384564147226 -1.3214501265136351 0.4570255765378454 -1.36450426334864 0.25918230476981097 -0.38535593762511766 0.3279708654018944 -0.17580312605548523 -0.09915697121790157 -1.05887198584314 1.1681554367041123 1.4235882989307702 -1.6608813084489829 1.4482347940816442 1.5591744542562187 -0.7989228903235969 1.041844031446623 0.112908870218459 -0.5185706873522852 -1.2343534442797297 -0.4656686025477155 0.26526792028610785 -0.15412839071419832 0.12648344682113705 0.774714414100528 1.1853453274608208 0.2570512285291067 -0.5315502964195695 0.6807352991532786 0.6004133380862416 0.5303794204704905 -0.4088643922406457 0.5602518349856836 1.2708055197022903 -0.8165908186727581 -1.1423563859159733 0.16682883428530773 0.07080860821317733 -1.4223544716604637 1.254455137213255 -1.2410014545729542 -0.820950706863145 2.577333530683285 -0.32739373968501934 0.5774898942047343 0.658475751507851 0.056514832594306126 0.5440725327534238 2.035813077774612 -1.8999103354382605 0.003231585388561433 -0.9070415811216156 -0.1466198697801209 0.43575130951193825 1.6260934087446481 -0.1864363556623872 1.8895049122891356 1.4693497085001712 -1.3145363852110779 0.34053177393978556 1.4340888113379793 1.6676916273979399 -0.33069038254611705 -0.337639433843426 -1.1070434701111826 -1.4976530691768484 1.5596740227512131 -0.07166578828881515 -1.6055654405962752 -0.12403121341694966 -1.2456071700197842 0.6193593030558816 0.005695739360140707 1.7754068148210311 -0.15164147604225092 0.6246212214729966 1.0207777265212161 -1.456055621958036 -0.17299525717092556 0.8830443849463203 -2.1694106931016255 0.3753995993985 -0.4081029457786078 0.6734559504877641 -1.397471180471278 1.8009092308288033 0.002907125381818205 -2.023317206104077 1.4870712883098451 0.6326692151945924 -0.8435540747112005 1.1139892295174438 0.19421432485067913 -0.9629105347948196 1.1860332304445849 -1.0004262266428867 -0.982685288010544 -1.4327955811474677 1.1453459478528984 -0.8535295879542346 -0.3813362807196079 0.98411543929845 0.3871905456363787 -1.0277139970817206 1.1027787579786397 1.215092872317584 0.1598958754401426 0.30372909310834495 1.4033136170286147 0.8665547032148873 1.0356757066680458 0.13729115168419231 -0.5696372950402662 0.8031432615385911 0.16385111705874564 0.12610740108010132 1.2189424348204247 0.1721691474654618 0.5366962029536168 0.36190359331980554 0.021079661904777496 0.21537109411462713 -0.996830407781535 1.5274023720263052 -0.5958020436562242 0.31596240367936873 -0.8943151325528146 -1.0451046530338044 0.14849489788451756 1.918374733346668 0.20089663095147842 0.5101408100089065 0.4548314739466864 0.6654988060897159 -1.2803141094270853 -0.19324837223255242 -0.7716225650867627 1.0322882285151855 -0.7965311969626179 0.5482140803331312 -0.421755523123521 -0.46867903853085935 1.7917770300802887 0.4332740932186988 0.26154854667033683 -1.497531488161838 -0.46524225119671286 -0.8937479105402858 1.261741218179095 -0.9802394985043686 1.0368237035420436 0.25072847044066154 -0.44096767553218996 -1.0148000754456987 -0.9786824126769555 0.4285410687780184 -1.1467237233383267 -0.39494402973469933 -0.3049902263770357 -0.19995915274197792 0.7965255949817253 1.1995391603733228 2.4879012701295 0.1966063085514005 1.2417000688337905 2.308742901009322 0.8404137249968788 -0.5767316608359369 -0.5687528060548425 -0.6191321936214702 -0.7583872464812381 -0.006338757083518998 0.3847908826476216 -0.8366750334314454 0.5251605176590988 -0.6335069194934293 0.9829803028564836 -0.6038624469069419 1.1706913603650144 1.8149201207698924 -2.826181183885674 -0.4894029639702931 0.016937484938009843 0.47532380083487064 0.16535515681790644 -1.9066792054864306 0.39315363526227226 -1.1894598815466075 0.5957832159375978 -0.20151410506640138 -1.860626398412244 0.08093901932777638 -0.07352729859640873 -0.21628575753973572 -0.9185042231576108 0.18941610674080367 1.425940263964898 0.044551059293903766 1.2350617792589047 1.559569987863859 0.4714447299837914 -0.10340021951444686 1.0724300692489352 -0.3976118209174548 2.199729707948662 2.2534020664717413 1.059909830702073 3.0008164282662193 -0.6093807338210343 0.33974394481885706 0.34964880430395207 0.6485011937662384 0.1029919887031244 -1.2304251034514109 -1.6495965356980815 1.2185059927586537 -1.5845977956555641 0.6112674533605648 0.8928191125939295 -1.1066730623776673 -0.04154155393673545 -0.4191860913907654 -1.2931842580073987 -0.014512094587649986 -0.06017759600189438 0.11382122887254886 -1.0665985073382873 0.1493515959840267 0.31641364802555877 -0.7236959878045743 -0.7907019901312802 -0.8443127243664417 0.4671580617492696 0.05487947710902169 0.053274780841622967 0.028773319324403024 0.7470381606483261 0.2522585613637747 0.2287794908898145 -1.03916806157001 -0.2771322796343214 0.7775649286612728 0.24400527549072784 0.8222185711007148 0.7512229784735415 0.17271102759719464 -0.7162776649527085 -0.14069516612275298 1.2678496994553325 -0.6886697884371671 0.11773008547976152 0.24785064955653188 -1.357606610094026 -0.6314471546013583 -1.9612799498388944 1.287790396432477 1.0786876035067434 -0.7996487466838872 0.5396131235799515 -1.7066830367022463 -0.12882328940734192 -1.2082708825943704 -0.1909672292523884 0.016935898761257978 -0.7010660492873226 0.633627272877159 -0.01292755276054408 -0.03486563887667232 -1.0456898088169861 0.19780666815742248 -0.3411516755818972 0.6044131895400549 -0.15866915990179417 0.9531558610362052 0.56315763936545 1.242918923925215 1.5817895425537019 -1.9077312487465055 -1.025797790883974 -0.8800354498571079 -2.579779089372929 -1.3754411654878815 0.07782189615913376 -1.3727542802311061 1.6711338938412565 0.837195746438527 -0.6060276108470544 0.9953807796311555 1.5931515583179303 0.27301845551076115 1.3954870709565823 -1.120408961644831 -1.6005792298369579 0.08358874727986226 -0.39754383092838247 -0.5623841708601216 0.19874743652604124 1.4115550208244307 1.0597179522675129 -0.8006957095686399 -2.2101502471117147 2.267603654694123 -0.6657758802153964 0.49864112289673 0.3156758432104773 -0.18447878718717428 -0.335958683578392 1.490265649530053 1.9560030420799235 -0.5678275503663741 -1.4664430328500946 -0.6645687590398055 -0.9438429707452436 -1.6294947136820084 1.202517317799347 1.3794119659744253 -1.3137493211580127 -1.3208892841560067 -0.04834073381159218 1.2495365229397062 -0.8694873005755057 -0.3778642561366328 0.7299427660539771 -0.0940677704987022 -0.15628245981681824 0.06868143471100539 -0.9063441275780766 0.6204494668418514 -0.20199956940761646 -0.01044514944150252 -0.44894540208328243 0.7069825400722354 
1.9508416615093587 -3.0051202150835983 0.3966138861598155 -0.7804949080136494 -0.589852899466565 0.76669397424936 -0.09534431434351084 0.7615386303660945 0.528941730637331 1.0761840396444016 -0.19270042674780244 -0.21818731647098463 -0.41804818091466817 -0.9790567252188168 0.26582340825403716 -0.009843595406361913 -0.23846549637395906 1.1908076514109935 0.6927877656249852 -0.8905214992424801 -1.4884323335393705 -0.7005721277427092 0.9678779212068848 0.5514392811303818 -0.7673444545691557 1.090528534476833 -0.903855631605995 1.676052397559602 0.6688390161789753 -1.7243075680752902 -0.837146046640879 1.4012362675851744 -0.13255229793929385 1.27153042569835 -2.1704719853732137 0.0329011585320581 -0.648269829871691 -2.1765592000280494 0.2991049738720727 -0.01135483986416005 -0.6879239657859182 -0.4347102796577043 -1.1664570109555457 -0.2816065083734253 -1.3255129478425176 -0.1835350767152315 -2.5466115029247822 0.9959151261847168 0.4890637094572031 0.17776265391781193 0.8991006910079082 2.7084754441640397 1.0396141729040074 0.06006345233238946 0.2783562576070798 -0.8357280453772037 -1.1891585995789271 -0.717160799697071 -1.541124285321678 0.6570127619819581 -0.5938142348531664 0.21948108023729587 0.5403310560734373 0.15391401411108 1.1811042750707932 0.7580947846602788 -0.49105625837348943 -0.24420494609467286 -0.737147737617132 0.4996633675904446 0.051067286650195665 -1.3834785784109984 -1.5005863447175147 1.2473387797206288 0.22371046165166206 -0.054419724002190126 -1.026198550066258 -0.7878445052938643 0.2614993799370424 -0.8330042438349405 1.6928859379806982 -0.4084792923805085 -0.14691105335943092 -1.055499299658629 -0.6209088284354163 -0.4001672170250816 0.5890830050616037 -0.029844465218548135 0.21752139007383814 0.3745772569013302 0.6936480716470591 0.30661953738142267 -0.726197748623132 1.1547047861337096 0.8889855316064198 -1.3415489286284605 -0.505663983867831 0.5671116718286522 -1.5961104775809176 0.1528543562450093 -0.9349719866562805 -1.1567661089307462 0.3508348265444428 -0.47632790872474357 -0.008207336081376946 -1.751185208397553 0.8029560198797664 -1.0824042141997505 -0.0013483807988289938 0.569298022212034 0.5935685788352908 -0.4987533860618144 0.2453192890494674 1.2615966441827382 -1.0701265983941415 -2.4493923708996608 0.8229880334044201 -0.03268015980194504 1.8122296859285896 0.7627289335703564 -0.5357256341300101 0.9049707576651073 -0.2840999695156709 2.386469880684508 -1.2310660014301456 1.2623156194483993 -0.04244157127320248 -0.23890635904642596 1.5569011640876995 -1.120798970410672 0.6761217641690039 -0.36129601948383777 0.8636372265671646 0.26962333684002415 -0.2961202706982963 -0.8371783243681243 -0.08249623577778524 1.151352200408698 0.9636639496073985 1.74421276275477 0.9427732615400201 0.7854439149282785 0.2649778909726795 -1.902771229808008 0.6012167066470671 -0.613254086950654 0.7782919234145238 0.23381519468328155 1.3021711126985138 0.49287370590543345 0.6816350900195624 0.6139182285435966 2.1749633566888003 1.1111680226737284 0.5487860512086081 -0.5467213504127535 0.8937986678901003 -0.2519382656249206 0.4580137336501364 -0.7305494187905959 -0.5460696598833227 0.9508766316905894 0.20663918765553377 1.3384215973742475 -0.4445302775364097 -0.5848275388207665 0.15755762171122129 1.2265375118838233 1.7760504154417251 0.01572065878144912 -0.6298971961540334 0.8910168725411515 0.722960232491855 -1.0683861031213755 0.5717212810977099 1.2696342537947942 -1.2167087055648254 1.4637279955436635 1.9848657899661808 0.5175183635515375 1.6899508306321505 1.7684914672248664 -0.9797629689943385 2.1441787111035095 -0.009117017867259585 0.15636442443278117 -0.713141538886314 -0.34413374486976456 0.781797066118259 -0.7244494688595305 -0.9223995669734298 -0.6247588226830326 1.7522662218550893 -0.5624729492287609 0.5379224531534846 -0.7019841514720944 -1.6740087250986908 -1.4085690411499439 -1.9960604428841682 -1.7633688976336916 -0.47172596161611513 0.9538299335016612 0.40553715241383653 1.0187112745106575 0.8847723201812888 0.6481560104828507 0.784861522141777 0.27838009676734693 0.9119566898544436 -0.4642895769851003 -0.44738552050876396 1.1435818440511785 -0.009420469110212428 1.2706837004831715 -0.5786895578605977 0.029173429368772773 0.10327592188485146 1.2445824067852207 0.08271311526694164 1.4672817942429983 -0.5294304428699521 -0.23064557764855492 -0.95312125017302 0.32893540175221364 0.24187208995519102 -1.5693741932877943 0.3083573949919627 0.8046331986574952 0.6548776071453529 0.03364234964377773 0.8928184501021357 0.6556862899289986 -0.4390860426014228 0.24538029315191753 1.107428305372865 1.0691012409285119 2.80355449499714 0.37798956069137174 0.9362433598502172 -0.5487589870056709 0.4404607323845303 -1.3032427944318439 -1.1890887816474092 0.07942290989259781 0.32610345443991007 1.3448522543725308 -0.15110893001496373 2.51953464514512 0.2626537957702971 -0.9310070976219441 -0.3883239953011051 0.5615587979218838 0.3357244291538663 0.023965941933049458 0.1604386373764456 -1.900959003860006 0.43688561565968415 0.14696890538043247 1.1813995542060507 1.855421207664135 1.4443537611317763 0.6207052506784657 0.5961373718666038 -0.48477484023888745 0.7950497460695627 -1.2295930222480886 -0.37592437734164197 2.2796143437921654 0.5390532014005729 -0.5579016457255368 0.8375345786240515 -0.7190998036504862 -0.30726310389766676 -1.356744929709326 2.0637210830071866 2.138148649849296 0.9657637364109658 1.66667017923145 3.479305991454385 -0.4621663708954538 -1.44236610453144 1.252632501113016 1.3300861721855155 -0.4699783342602964 -3.604059464730646 0.4187332687486178 0.4776968466660101 -0.008897085666207536 -0.22172241480905508 -0.42218446623163797 0.7744284780385357 0.2924430012648842 -1.0636269749810614 -0.49220196377256364 -0.3681949597600235 -1.3261593270089258 2.1993722483924407 0.1398527324455232 0.35977471089184143 0.23366013636669763 0.30572806220862564 -0.7740833561615775 1.545454619376926 3.621616080881858 -0.7314493781388153 1.5737306785918388 0.44457690525132004 -1.9175644058446566 -0.641346590843386 -0.30007436181415764 1.9584861218736882 -0.4101781722737305 -2.160169067340508 1.1035720866965666 -0.7991926637296578 1.1838570251960305 1.1013030342869865 -0.0628316261698476 0.12977785526714608 1.3667553905461167 -0.26068369197947416 -0.11985142613685285 1.9581734314232129 1.6514251192134437 -0.43403951809224456 0.7190966899273782 0.5343897365377489 -1.5248164005772662 0.37054122356752206 -0.7651932614669896 -0.4766474308632804 -1.6891089907395564 1.34240589001963 1.3046469009995856 0.41384719958702804 -0.7581605061251361 0.7001773150024919 1.178914576367818 -0.1739878673974791 0.6378538554394093 0.20486951798122957 -1.7285304430976693 0.0028688423845635975 1.3140308473715494 -0.7600415915582632 -0.6133079058797747 0.8294381659039372 -0.9031234759506718 -0.654682709498158 1.146976531617912 -2.0291746095565086 1.7665642643074049 1.2773015012218634 -0.3283426416362963 1.1648187853968175 -0.633440957309099 -2.475546176242268 -0.08552788800199587 -2.0479984977812706 0.8724125721660514 1.276502928468943 2.7980166852435344 1.5129319533014007 -0.4081348813542143 -0.1507816217407855 -0.42568654429388536 0.8794856991398611 -0.5170293271953871 -0.11067387298843882 -0.38233712276050147 -0.25136651140263333 -2.1122586544158097 -0.3663711348834536 0.4005834553889804 -0.37820719900251776 1.043349221500844 -0.3310411101588587 -0.790579452218206 0.737096110625243 1.1373929237065334 -0.4911499039862186 0.2799501572706711 -0.7278687993850945 -0.13393531436770728 -0.5417619755920139 0.7486216458898951 0.7829867998253859 0.2470124969058833 0.1020184849891023 0.025459113253155176 -0.9668116385661838 0.40104506902010334 -0.3161349622876471 -1.3837288712751699 0.6554479971886357 0.2200352205017003 -0.4129004690222053 -0.4784526964180059 0.09360857019352965 -1.5295230214534326 -1.6567415061729938 0.0406025636065846 -0.6931532187379833 -0.5866413908663367 0.5121878446147328 0.2325303494115848 -0.18037475181377532 0.11080308785879069 -0.04298023122615963 -0.19054307884396812 0.06407992772166746 -1.4505081033794178 0.31191587122106934 -2.039200055589805 -1.693743485813679 -0.910038138523664 -1.387543809689165 -0.7901185281303249 -0.8492522493287833 -2.5735009107580136 -1.1555576526456346 0.09633123356230971 -0.4804562498234577 -1.0544184591932082 1.2729550759048092 0.5159637514708366 -2.7201789288032665 -0.40205844584149414 -0.40673518718716684 -1.840172991869198 -1.0848987946847097 -0.04814995326542881 -0.8905079344752607 0.4217550568118581 0.8892298907133064 -0.15003567874940305 -0.6418646465636325 0.2401269771355365 -0.10125714344676176 -1.3806134249717898 -0.6269176723951035 -0.33469157182481046 -0.5251897355561116 -0.03726641914582883 0.036374534034887315 0.8167552100752387 0.40068939155932687 0.07000960867984429 0.06441200957114311 0.1242863345484834 1.3844127087700389 -0.44811062161321874 1.0158189849295893 -0.06594123721047347 1.9261344043532902 -0.6395876564169352 -0.6455260896913687 0.4035298181556792 -0.9089946170347138 -0.6117465279344225 -0.5331225468935583 -1.975622061638534 -0.08148388528417146 2.883646337470577 -1.5177395978696548 0.9567576359179011 -0.25355880860424973 0.4227294387687313 -0.055404476961365946 0.5879169457872544 0.638786470180079 1.2998546857498277 0.8923911919065081 -0.8353093806769503 -0.15621668209010806 -1.6320408949355913 -0.9001310397932428 -1.0826401343640704 -0.9166504682921013 -1.4307231187359835 0.325624479220846 -0.3849058213541125 0.21016815438222045 -0.4820985479991208 -0.37604227912838617 -0.7066602908783419 -1.381283500346997 -0.9723342221108895 0.18767056613346392 -0.8785402448302806 1.2158008798724436 0.43875490992115634 -0.5647565918356235 0.12151292958495397 -0.6929278471302746 -0.09081544479208233 0.011949990065170038 -0.5725417079299704 0.8928801881680982 1.362026422046076 1.4448927683644999 0.9353042617516323 -0.28976980645337175 -0.22457884819080046 -0.09761819194417823 0.3118384882834875 -0.23500498426005145 2.2898246460986846 0.06408436353123596 0.6476223942718429 1.0528366560980251 -1.3113505818482807 -0.30292906365810834 -0.5638814349886946 -1.6667282763065516 -1.0016574724290375 0.024546506909515247 0.08924576421205059 -0.1318095674507024 -1.119004183665999 0.6390645154654837 -1.8627680626987486 0.39155996457648384 -0.9032124701431447 -0.749155219904207 -1.020598987979937 0.9197173468336853 -0.546837831843284 -0.9463131082120493 0.39476416569975586 0.5690956404294613 -0.40864257921787045 0.21481395327573077 -2.2259439792335574 -1.4980811931523084 0.6502097438890994 -0.13103227378458365 2.130069907835978 0.587928520785657 1.6716118298331797 0.5750354991771284 0.5268666443215412 -0.5545721854157758 0.2876286011696986 -0.8466684434327997 0.49324708621131413 1.359509473181295 -1.1928193835043246 0.5403520051573978 0.03114266919273724 -0.23772352477051367 -1.6492155463102365 -0.8714661048115424 -1.0312012704729345 0.5289159545069313 1.0109055684009756 -0.7340761609962929 -0.11760139475171906 1.4774607836878204 0.9587951151276796 -1.4008266568667407 -1.5232138093054963 0.022755029145484846 -1.2064422739642426 -0.7298796350258723 0.03731963600095835 2.3763535631678323 1.4216929653092392 0.4777746361615566 0.07981890655681825 0.11823537745026834 -0.2963520347644729 -0.4638494327208779 0.4352734975889788 -0.7859926756919142 -0.15121395755036102 0.5373291977475025 -2.2982172392681264 0.7395624596207709 -0.7735899008871159 0.6848936852892966 -0.7940209236898707 -0.37616909269287196 0.6703982205980021 -1.5535641469947858 -0.37026826313442834 -0.34479083924216214 1.038565416659068 -0.7139344161567227 -0.023321990633644603 -0.19207039895892847 1.5109331680244336 -0.860812121900176 -0.4731701823056113 -0.23833600817809977 -0.5345405196953933 -0.21444233189319706 0.4224843822904764 -0.1531551868112632 1.520236411418114 -1.7710196775545355 -0.2716757340458153 -0.9923680311976885 0.17746683358037135 -0.7210162638403635 -0.15112076003312716 1.1720032812854193 -0.6718866991479919 1.330087767409886 -0.3699986119948091 -0.07703347083074927 0.35688469668581546 0.26166217620239507 -1.714658249593282 2.19140394906865 0.8780205863418674 -0.49308049243456475 0.7565639412104436 -0.25108979272842175 -0.7139638526474203 0.789038482473214 -0.23122774442129143 -0.3773054245228454 -0.02724583736894602 1.5962385443751825 1.3706470460691436 0.2521285409640134 -0.23615744458518032 0.02703416607091661 -0.9250363821599783 0.6062076892028385 -0.09517820467875109 -0.3991762255073585 -0.28803959396410556 0.5122260619289489 1.1089578457852463 0.34154329595011723 1.097589930481997 -0.6569223885301981 -2.0104801531457888 -1.0738127678323106 -0.37724161792914557 -0.9592635066563 1.1769596840056435 -0.3557535965337201 -1.3234569111201264 -0.16669853347944516 -0.68264240306659 -0.27760009894334153 -1.0239470162688669 2.479907582041091 1.7616877348063193 -1.5616743258164496 1.0953151778275443 -0.9250385618136768 2.03439382227038 0.270024191844281 -0.31275474428343564 1.3575485645027194 -0.9604680895083003 0.016000370366119183 -0.45642106832238455 -1.6534442008194097 0.49950395306512857 0.9728120656633304 1.0246804447770177 -1.347551776283798 -0.1943933336750357 -0.8359277933034186 0.38668235593980665 0.9541592096430663 -1.5409232559151276 -0.6500878420920124 -0.7418280188125663 0.7121026692165153 0.3807876538698356 -0.6555020852627874 0.07392405616026514 0.612739666417874 -2.1620163376263117 0.5766740835826552 -0.19011218203676628 0.4329033253124882 0.9544096465117927 -0.4918466418828901 -0.0976046928051555 0.2632479421639612 -0.7735924264439763 0.14936914930577588 -1.4609100060583826 -0.2675168036194715 -2.2445650049368604 0.3289907354584839 -0.3346201772051942 0.3284817463849819 -1.1172496815892772 -0.5454261850901465 -0.38908134238055553 0.4058254819389145 -1.6375728997009296 1.3614269959136363 -0.6953612478448127 0.019771089965846006 0.0018900718682675782 -0.2497573670870637 -1.6943298356945025 -0.04247773701759293 0.061907918117139575 -0.27500980927585617 0.2434109100833976 1.7032496177402987 0.9585530755961583 -0.18481673618156894 0.9261144751681331 0.23318539726677892 -0.5117418660799444 1.2320789816475939 1.0454013696281816 1.0505229349800687 -0.13095761141499962 0.39710589416829617 -0.8944954715155539 -0.6522918853787908 -0.5749028093183086 0.38668153314683434 0.23333752193101515 -0.6235451720064306 -0.6203415986400376 -1.8249187369501747 -0.3928036312487667 1.000328310222084 -0.3733586948816103 1.253081138021272 1.3334888419020907 -1.7847895959045597 -0.3353610418649856 0.25497266529573254 0.6887314171950988 0.7983147833409022 -1.2685909987992785 -0.11954229035308257 -0.521359466531247 0.24212461792799372 -0.08688889358087734 0.6549214579242069 -0.5161590762179163 -1.8841653443903956 1.379794385939735 0.6687678052040953 0.8871932439529533 0.2925705257269987 0.7436050606375278 -1.4298827992039533 0.9704383672084133 -1.4715588554436727 -1.784917441148657 1.1175648519562018 -0.23131343942648455 -0.8801759530340708 -1.3916978526633947 0.2303396083942683 0.18690544873117584 -0.13509647024184016 1.1002842539002051 0.2284669852540383 0.23257221108038317 -1.3880392582467784 -2.2642245834301113 0.526257149972613 -0.5122086887778147 -0.4492778365690106 -0.43294441887761287 -3.401325685352157 -0.6521368964473646 -0.5192664358308278 -0.15342004916798405 0.8261253657177069 0.27067134147980276 2.5457993033541477 -0.22827614010478867 0.009189223882277522 -0.2499896474780126 2.0416459617298055 -0.10413665516096132 
0.16458933725684557 1.1495391094457192 -2.3177401320459565 1.4558333721676264 0.5842170211114323 -1.5726013062706012 0.4326436747468487 2.9887042098024117 1.1485375157869941 -0.0920701294423048 -0.8222304983910769 -0.7211548870374956 0.8979965314384327 -0.9854119074037249 -0.6682353101235007 -0.574306911453859 1.2966681143630832 0.5932316986994276 -1.0718598025011075 1.0900393827643282 0.23367439457266562 -0.7143882970822232 0.5734672419484105 -0.7713262628839025 1.8858697852005648 0.5113216960276278 -1.2369234485466925 0.06310336133543713 1.2281001609201578 -0.6879572982232649 0.26091987948155027 0.5479887515150254 0.4783702377988086 -0.6619946457378535 0.8662857860856473 -0.6620561902250959 -0.2771055243591564 0.977794255414921 1.081757188231603 0.0705013182373222 0.26175805129830476 1.1687641033369613 -0.7322764965554817 1.8814459265983245 0.9364518776644778 -0.8044169280519206 1.007199582780222 1.1015673229478915 -0.26610919349409373 0.5418925503377024 -0.8693310964560479 -0.5878836718284256 0.9729003510722053 0.8499183525300784 -2.6225587102386263 0.3629641152358677 0.6409692758823652 0.5503205292387847 1.233217699393011 -1.357176096648081 1.201954761306885 0.555790081777685 1.2343372835533821 -0.4408277958213662 0.30896918336061224 -0.45251895454837365 -1.1187859764291228 -0.057561411334304785 -1.8690830458930043 1.7357199549656845 0.3512158464826738 -0.46593272850225503 -0.1302194853629879 0.7914785218016325 -0.7734214057844508 -1.0629848198799692 -0.3695877238675459 1.8474117841756028 -0.8712127310213712 1.2302164170736742 -2.4688076060731254 -0.7263025717500646 0.2924876852015347 0.10593288871169028 -0.3129685369318256 1.1911347997154385 -1.0673964545919807 -0.27107191375248324 -0.17155399682710276 -2.035744785428858 1.0441895335578997 -0.3211170195455898 -1.8877198826361299 -0.04722978373335386 -0.8534482980130347 -1.1060974234665346 -0.9399147963558127 0.7673358561145144 0.12782422123982512 -0.46030960068616633 0.13085485715297906 -1.4340977834782906 -1.7923490335422279 0.49723691797482705 0.40398471727821345 2.0303546360400127 3.1156531749081893 -0.9072875156596099 -0.30106486622223066 1.3830852278944625 0.558445064319506 1.6115063970231787 -1.1129494865769725 -1.4440896065580904 -0.7780310617213643 0.9432216058776814 0.6795857382105768 0.2545832259007589 0.19906386168086246 0.37649834503253893 -0.9051210074523339 -1.3832070790339326 -2.2770420107887888 0.3230318538996703 -0.5383326512612607 -0.1945476730370212 0.5942107429424729 1.3139671579951226 0.15994178390458744 0.3717377478004964 0.8931819432188548 -1.7312752859074285 0.020217650075141598 0.42257749507717274 -0.017976431248208503 2.044595215578782 0.711688023059768 1.4664741307068954 0.17184040724575142 -1.0213250663720574 0.05236055680694087 0.05448369456826591 0.360960194804925 -0.5551105875976957 -0.5424090159014081 -0.8416441395145341 -0.20191113817587406 0.48585573090043577 -1.0247411285213257 -1.5100373888197052 2.0404110236736956 -0.3493781742371789 1.587445366352447 -0.44132386548613844 0.6109993406064068 -0.33355908773349124 0.9581443796563872 -0.7611324772309812 0.4187643939403838 -0.46317132551231005 0.2435175776671433 -0.9321123520211475 -2.586699966788521 -1.4145325374399136 -0.09308065649714654 -1.234485721038465 0.6548145776405397 -0.9086887649762815 -0.4479931542468017 -0.9733695715578492 0.023201416366281015 1.1373080408745944 0.2103070674160481 -0.9488778536860697 0.7248337965740406 -0.07860802843460053 -0.404090772109803 -0.2942544915956606 -1.361058143917137 0.9501174650741346 -1.0098176999210602 0.6590424389582065 0.7094737764962943 1.2148848593277388 -0.07127959592285621 -0.4841383574249828 -1.4712440953852324 1.0774444231121 -1.1038944603592935 0.2589742746065675 0.7815407914080655 -0.7973640177014271 -0.03145849601661143 0.7140245642815632 0.44454045865841585 -1.0620987508642168 -0.8910968710031653 1.4858009455128485 -0.5845001014276462 0.7790447574162397 0.4554974150477141 0.42876741724177536 -0.8235640776307614 -0.7463501972565941 -1.8913708463654653 1.274742934793774 -0.09942735151526368 0.6005057780431928 0.15197352051471533 0.4953051139054064 0.4197387751570645 0.08117291044744657 -1.3073178125725589 -0.9706542868260674 -0.3906600181874301 -1.6258391586488716 -2.00634485246177 -0.036285547064374514 -0.04632017662466438 -0.43162531432918566 -0.9849480689043497 1.4670258478509088 -0.8202756159129274 0.8531037611790586 -1.1744937442061165 -1.6282017908036357 1.2835534090903509 -0.3145200364992737 0.32880429250258575 1.4739310588758452 -0.7996751315166205 -0.7595653492435032 -1.8173686671471405 -1.484552718844427 0.13308858546246422 0.15683939052935517 0.8618710988109095 1.1320118753737034 0.07460732364998987 -1.150570748433909 -0.4467759820430052 0.05071540802160898 -0.6973999696849807 -0.42322576940361284 0.6533343705172593 -0.16772475701281456 -0.7147682500717779 0.031199708054543765 -0.016171550607752147 1.512445831547743 -0.035421413089943496 -1.0004100147589554 -0.250011866811723 0.504560203496965 -2.5698394847791284 0.08478828534093706 -0.7637555119360776 0.24186185165683147 0.016814167023894284 1.0348328985034367 0.6863886649031673 -0.8305532287177708 0.6703891165550033 0.41938181312426304 -0.19150763645486013 -0.7618228825797922 -0.5344641849231131 -0.9360660013956452 -1.6120953596037073 0.13985719590006457 -0.18268738203497706 -0.035876092704202875 0.22724058309130957 0.927582099335126 0.22092288325953313 -0.7964399989734705 -0.9534057841986604 0.057535839937076144 0.1516297084848961 -1.4354889406319524 -0.27020798187861295 0.6406718065924977 0.29438575783292736 -0.3185622115553911 1.7826691133698374 1.1456751491139436 -0.3522818765783251 1.6014900110260997 0.5821639354815927 0.9045683346360108 0.5583090188947936 0.1481828226263169 0.5003594033547442 -0.7842746664400154 -2.0773197607906013 -0.7683121564373018 1.493679652865747 -1.820069659023134 1.9509399125867424 1.0722434533897356 -0.37365029358254903 -0.26353572717287443 0.592622442629917 1.6736298264071112 1.5412458295352454 1.5218531247932052 -1.0335820959601627 0.9146123327052218 2.596241066557577 -0.36235313201784564 -1.1204490205289541 0.17003177174082623 -0.277761547275271 -1.1830083350143155 -2.184116657144826 1.1770382161092152 -0.23656156217743524 -0.1765672563617585 0.2788463772459046 -0.11093973488501176 -0.7530984316722317 1.23804154173347 -1.819755119377624 0.5611574273973347 0.09832028476108952 0.15215390189061376 -0.15704780250831452 -1.1268035617453587 -0.12683948737754824 -1.0369100643181375 1.0528593855581438 0.8868941504308757 -0.6926815424738945 -1.5126822141137741 0.25672682257212426 0.24730671045348057 2.027341575676459 -1.16087616422278 -2.2359053871712566 -0.31015690817913427 -1.3374449648978057 1.4493553947082045 0.6623784671918971 -0.8858315357705014 0.5394285286832169 -0.08877694558017346 -0.7203465797496384 0.09239464503563831 -0.7855342270332827 -0.053509541719594114 -1.182886310410334 -1.2034708673741215 -2.3605479174175894 -0.24273049369151994 -0.8826363176246167 -0.9956909120094468 0.04061438598320614 0.8385341636068535 -0.6159329023745383 -0.31002220800900526 -0.27004680353506755 1.4226951615439827 -1.5042189307075564 1.0525230114480912 0.8206284018223415 0.6583856573243927 -1.7887593070317853 -0.18655330650104815 0.16060802667456725 1.6705951654924283 1.7378143439811802 -0.9132177016728189 -1.100016443164811 0.36205496568755857 0.09649571365295774 -0.13732516514282972 -2.359407367331579 -0.4072808358904261 -1.5199125104458686 0.5010516951273527 -0.5557534739280514 -0.8732803499606181 -0.20266508572648773 -0.6763462546960324 -0.6384004125491559 1.1580452014202836 1.1670483231335882 0.8635483146452521 0.8472361111645662 0.7201376412885385 0.524292495325416 0.7110463447129294 1.8864629361087288 -1.6224994776387185 0.915393703858148 0.5600894849413738 -1.5760040981965295 1.7144796691965984 -0.3677173665487072 0.5991629912925932 0.5620865532895143 0.6047994388627391 -1.5076550999443301 -0.3342052684370563 1.2480180512125651 -0.7942116329653884 -1.5204741988455874 -1.7678707043074802 -1.2587876240222777 0.7049086840764817 0.4176603415594855 1.9577322385374154 -1.528294991915689 1.4692025084952047 -0.5829313242230886 -1.4544808701458225 -0.36917146465101763 0.3570810375871819 -0.07662764313544217 0.5229092833916599 -0.47778767724275123 0.6520085346699426 -0.309218068375969 -0.8755123331908612 0.6073132959416815 0.6141556860904336 0.39283192432411673 -0.8183369213605134 -0.8127989556312444 0.016492982925484234 -0.5736892702645304 0.15336596036986133 -0.11116082709620329 0.7017015128306863 -1.866512680316942 -1.7752189475177675 -0.03270034103013138 -0.8361694026267137 -1.9288448599240804 -0.6139788826027924 1.6099810315629366 -0.7630378618886645 1.249997158123294 0.48692390420693005 1.1629646214608904 0.7015243804116108 1.161935255804159 -0.9526029954811434 -0.17472194751186937 1.4969105376120477 0.6265179417817497 -1.122666097059163 0.4907655071557811 0.18140012572544173 1.302608090645255 -0.5074770123514768 0.29407065704909346 -1.7291046475817546 0.806229480103555 -1.3387771448640706 0.3783626590922143 -1.1691449080917895 0.1628553478177948 -1.4732910643154766 -1.041897115153171 -0.7744279170807569 0.04973828459442858 0.6747559664589355 1.0889158352422201 0.5623107937136451 -1.7384810467826906 1.0292233090453615 -0.7306038526512798 -1.0010996295168815 0.5910709564842377 -1.580389607001074 0.3369969629401001 -3.040047430592527 -1.4715029210621127 0.23625956873054704 -0.3129222150770791 0.9922632300223682 -0.016025261293061987 -0.08143574435238284 1.1436189793267117 -0.40530351010125176 -1.4055884695783578 -0.016926609040077877 0.8064557429042345 -0.5675625402274119 -0.5491091798784137 -0.04561978462875709 0.20973764431993008 -0.23702530410090805 0.5092359812446281 -0.7292823328901475 0.8973716879288224 -0.8231689918231029 -0.7407202782555411 1.0958863366227425 0.584117021833883 -0.054118202112132335 0.49050814607865323 2.13099221017115 -0.4942776867182879 -0.956170629279972 1.9258131743386693 0.704768046216878 -1.705164986981094 0.5476505331632708 -0.5676616655745642 1.077285275965641 0.7440534799635374 -0.9897641323891403 1.1848836910807325 -1.070761129527627 0.49369438042330704 -1.4720278917167204 0.2787447947890672 -2.270336473886254 -0.9432142807760767 0.4460017243909077 2.8012963774340074 2.0048766740949726 1.5301496069310097 0.26244184738363646 1.40292499248523 -0.9251691660078292 -2.4979711666124755 -0.10212590806271178 -0.30121644204303755 0.3977608919880969 -0.021907629496402965 -0.06887394361265588 1.768806291483934 -0.020384659799313653 -0.3669635505130907 1.8035508168363257 0.7318593866511192 1.233691905088502 2.2316125353324345 0.2602582015206252 -0.08203035591246438 -0.7506675838878433 0.7922732110675439 -0.5632620586427873 -2.448329139881838 -0.5802947312203945 0.7296781020525999 -0.2914604183023371 0.31763215632297187 1.1214456956258636 -0.5009858673903275 1.2624539152148184 -0.07927936167685475 0.05458502222008571 -0.0337357669259122 -1.5878168095378467 -1.0255606592011173 1.2286297817315526 -0.797269591218569 0.30328018312645616 -1.089049558237861 -1.2415121109866727 0.2660521385861703 -0.5350895955863586 -0.3449380297348159 -1.6765526401011699 0.33779818831478237 -0.5764568960286404 -0.07405753035089611 1.6635297933489526 0.08328303762500995 0.07581256689729571 0.5322643874490071 -0.7072984614588205 -0.1136024823484422 1.0320198894871575 -0.5480696756886503 -0.1434415886768415 -0.3505239293137231 0.45994745131109493 0.628742663681617 0.5642715543967458 0.28212717482924005 -1.1074361846336174 -0.2179516825648388 0.5693555025936661 -1.5473313709771535 -0.6853950875165205 0.038861353567559764 0.4685951518971724 0.13051522953692749 0.19487848195820798 1.1384028890134479 0.7363127470669596 -1.8847626804636788 0.8594266440406676 -0.9509988275206989 1.2070613735471878 -0.3295709365258432 0.5177482301676323 0.3737283203784611 -1.2495716585319583 1.5455603867658056 1.4348265260790625 0.23593266628086054 0.7098610970273717 -0.8986811578962883 1.2969380581720782 -1.604941673565676 -1.4239324740980195 0.3261195405111173 -0.6217899104542679 -0.12780178483541754 -1.8962896047285789 -0.3198691818158247 0.42179610604370527 -1.1005386683731806 -0.2196503309320432 0.22659088301202332 -0.29579545797207024 -0.7055997556556408 -1.1440330657617503 0.02390592855990244 -0.9971658448204543 -0.6716592131758439 -0.6630057304467892 -0.15262872956696516 2.298632949903028 0.7149363235054839 0.2468761676381822 0.8459173140607757 0.4973090185638214 -0.14234551578290414 -0.2394751193161989 1.3049213870156602 2.1267429266921694 -0.5153253401654139 1.1693326098029346 -0.7150068009962336 1.4000167163499 1.1345534257150256 -0.5868692841827887 -0.27247074330406984 -0.7540288890571656 1.3743252774325923 -0.4060887482327984 -0.33815123802740243 -0.03150004019654369 -1.6882938531233977 -0.4531587848996381 -1.022333291831069 -1.8849172588255068 0.10637087418026607 -1.4749237416686094 -0.1807200166024396 1.3206087025175837 0.16174877195173015 -0.9006501147439454 1.5957631280691429 0.2390834196457073 -0.6132542509583896 1.4009960963076873 0.17430534123195449 -1.145965583156883 -0.16757713261423715 0.17252940482676404 -0.25307882177723584 -0.3314852466598829 0.47109725474471553 0.8881926122829944 -0.6058105109872587 1.446743603488963 -0.07179588648607435 -0.9912150723982139 0.7077413719896548 -0.3673550365147874 1.7906850400467291 0.9127488767573154 -0.16994926105318306 -0.9461226030548422 -2.1337554128299474 0.357110492001313 -0.4671653504611919 0.37258637498459746 0.5533386513246165 0.6804880595240143 0.4237450587317866 1.0192866339502973 -0.3945826375095863 0.2864356749574913 -0.7484909471385425 -0.7234580268134273 -0.1768656511287813 0.7248019770168828 -0.2393597545195244 -0.13371118935118503 0.513936744545569 -1.864550076919644 1.155914289876578 -0.009563866468897364 0.34933602986719803 -0.46351686067528786 1.1431713461165003 1.167702772212031 -0.48457233691989093 1.6169587395495653 2.314393712245474 -1.6666605556246785 -0.3664369000250162 0.5052879265317414 0.7067032421489899 1.5246714677658604 -1.993006886878515 0.14517828859237422 -0.39835273066002447 0.5885479201146816 0.03156544143871945 0.16052621437090012 -0.6532577483674384 1.9944462504951048 -0.604075289687123 1.518325285033341 0.20561395437987784 -0.21806691040675197 -1.3178782208716284 -1.2178948905239249 -1.4283811001646098 -0.6653942816340724 0.5913734780531071 0.205312266261657 0.16026325303996855 -0.2063324719844692 0.0683974577056875 -0.84820354871873 -0.19987686119964285 -0.8804545752016153 -0.4688189151091761 0.719539590247667 0.5554430790493121 0.2790690468373185 0.13020684687678688 -0.6150599482042357 -0.07986553202795313 -0.48749152948339375 1.053550930705883 -0.3445831108997842 0.3794612908024839 0.7634413513059283 -1.6000685210430805 0.3757055885610775 1.2821023316045084 0.12456913087128882 -1.1713411082024228 -0.9401478822213711 -0.838235057103252 -0.9403473080973289 1.0342382005173505 0.536538697474943 -0.23501085973352254 -0.08170847970952876 0.9229316442562429 0.037419384120616205 -0.19528125930464416 -0.5929482880025356 0.5665222159149896 1.4971965100934983 -0.5899260083213981 0.2899952002315434 -0.006294225846081964 0.7576213436916079 -0.9707542862120944 -0.5352528824039505 -3.816316509379157e-05 0.01857950317516639 -0.0025544162340145364 0.9793504082109142 1.615850629239758 -0.09200861924954744 0.8777389930862534 0.7478582117176421 1.1749587834721271 -0.18496956510020812 
0.589758568264817 0.10719507449016391 -0.7852827553245038 0.5974903156663595 0.87173890977847 0.08734049786334637 0.22391677281856923 -0.9413918244371526 1.247745319833947 0.7388775244683131 -0.760775460312882 0.7751992004900876 0.6411891214753014 1.234133331338698 0.8060717309648913 -1.0018921853602032 -0.23866187188409727 -0.12542070386933465 1.0377294907499868 0.21583527562860935 -2.0520713128725916 -0.0499512578587428 -0.6656986195169772 0.21247773362168532 0.2655146349566989 -0.06811667353375472 -0.07782259540869105 0.7437873799746105 0.8881649402204393 -0.26333369702605813 1.450146270631565 0.4302133898500222 0.7287070543590224 1.154302361124213 -0.2589300470873111 -0.28698213421982793 0.47632660542602484 1.1002913226493525 1.3354517361762694 -0.03375738800916584 -0.9664176770566129 0.25038679951422077 -0.8634089412305169 1.2104396735095964 1.7492210293258552 -1.2856309495405422 -0.5575883731347372 0.46041309048553664 0.05038449153888126 -0.4225003895462497 -0.596558323658653 0.6263089483784935 1.6959525116086471 -1.2023241907826614 -0.4992717993448981 -0.9584733726881352 -0.9528456145831022 -0.26779431154398353 0.007622753831237328 -0.19173865348824426 0.9879772198250183 0.5390850989878215 -0.20879228669467473 -1.1848957054921885 0.5892058821966626 0.243037765364484 -0.405128043914995 0.6180723172735451 2.5873883311448114 -0.33706195073814654 -0.4108537038083656 0.36096692436494177 0.09010853951802496 -0.8259848815905637 1.0796870926470983 0.9683958350846255 -1.9938713402524135 0.1683863826803863 -0.7663632918843447 1.504197171643141 1.5162433334618743 -0.14397859749832778 -1.0711552124319756 -0.6019996598753667 -0.8362980717981591 -1.6083279164724213 -0.20205869712251953 0.5135721573301244 0.05944487736432485 -0.004669731795846395 -0.8149958775835047 -0.42006229276605206 0.4736978981200152 -0.9754279330263766 -0.3101806564940047 1.2071697832294788 -1.358005627731542 -0.007865211339998379 -0.2922525125754693 -0.4346501999919736 -1.1608469955216725 -0.42970923043053266 1.8430657223452995 1.99087377511505 1.742310939889966 -0.418306132044166 -0.11425203911877989 -2.1703170429360474 -0.2906391921782338 0.8193918100977298 1.6804948350290405 0.3087063619984988 0.05828574200054271 0.5636976585334532 0.6557723556615795 1.2832003414399302 -1.435986690183238 0.7478265362667319 0.665208496416338 -1.457471196963247 -0.000816194495947995 -1.2104080428499853 0.2080446397777275 0.9865626536046198 -0.9796250393770096 2.253534855534948 0.14822256525027297 -0.46332315898174653 0.6468185522631104 1.1812024438617597 0.9700981007287286 0.46401099360334813 1.1482744305085704 0.23173864899565036 -1.1361223310925737 -1.586434650676605 0.4695825492012418 0.5230532875540165 0.9620530754657043 -0.9277590926038594 -0.36315111046374254 0.5569148573341455 2.2116521395321276 1.5599312530631215 0.21896271667893338 -0.6900458684918958 0.6719856646209459 -1.5430535833517647 -0.04562074713443927 1.4287082905153041 1.1195676522137348 0.6944367423447423 -1.79138198637682 1.9447668777003644 0.4964782686985645 -1.7081179970418785 -1.0593822166296942 0.35980948480945407 -1.1447095600096227 -0.587286324884608 -1.2955269286724458 -1.5079643221316434 -0.37877017820074094 0.4601694362400128 0.23427907203280057 1.3777508276568764 -0.2647046602323873 -0.5182741485647208 -0.8632650908841082 1.4259758340428261 -0.6758567128469979 0.8615661953071844 0.13782918879824219 0.10288518925305427 -0.6745359220919935 0.20662814118875675 -0.20625316949922132 0.7262857029286819 0.02600007115611651 0.17912669307799958 1.042989259581554 0.3672037668558101 1.2558468246886705 1.4114372981291003 -0.6798687296848699 -0.24625564156359822 0.03929674918274849 -0.7005071152792282 -0.3708463582758511 -0.31015392838562983 -2.1661624019869072 -1.3354401015307251 -1.383831046840099 0.20703847662787417 -1.5517755878942872 -1.3371901061599267 -1.568867068881804 -1.9761133689495602 0.49441637424849333 1.0826768531359914 -0.35909159208877856 0.6766023879745177 1.7927142047986708 0.3533794296572755 1.231399832843808 0.7699578798850518 -0.9229446890315943 -1.6393311578125014 -0.6719576809337491 3.012931806775207 0.1928279523042957 1.6586345423764188 1.362015894846037 -1.5202077599794899 0.24092605852051752 -1.1751314170249985 -0.07617379834541217 -2.5566484215119636 -0.07834684954515855 -0.7797212197950639 -0.5709291176020846 -1.2072798602156924 0.539780569313928 -0.6562100676277806 -0.25894170636134656 0.5967445774789787 -1.9299548629908974 1.3519330104352798 0.2160450389913969 1.3272109430818164 1.4631725886166296 0.39676062089054553 -0.9538286963554571 1.1716453344628754 0.1478236384737992 -0.4794296412547955 0.02117618990499965 1.252946767536169 0.16193238146218622 -0.5617494802526836 -0.08179385156169007 0.7518877743929571 1.348162115771412 -0.8755600955659957 -0.16424857967734707 -0.5386975200848276 -0.4892022362448188 -0.4696689323714935 -0.9386497036677673 -1.744527973984281 -0.8526744385549304 -0.6048739017789779 0.2102765943376723 0.21069051758302362 -0.10237458315146968 -0.24736081690090087 0.13850460694880667 -0.030151858127459942 1.0661964746444372 -0.5142255752199464 0.04519930616723346 0.019762597884035702 -0.6567303923358808 0.4014949112753977 -0.4961536086879512 -0.6429034277784967 0.6329923238650397 1.210622697189801 -0.37066620685956186 -0.4800314536689837 1.805028904403685 1.4164599166844811 0.33044771421961866 1.9467053362362505 -1.9238701900579906 0.3417591448815656 -1.0479600926486 0.355385345079485 -0.7721127437571765 -1.7113438991144005 -0.6264900417432108 0.6695962193397632 -0.30092613361651555 -0.044048655057376734 0.5792288356585552 0.14158316061096632 -0.6644401046405215 0.6339362960417931 0.8692568113943157 -0.8707512864571326 -0.2181779840204018 0.10481849965408184 0.47837909892523495 0.15815030992228213 2.1020721174064727 0.8800187156903676 1.4035486459616784 1.4687117327718422 1.0028149831100863 1.5928659751390435 -0.19615407564327692 -0.5989905579069358 0.5556885521004706 0.05952113165319593 -1.056825276377429 1.8655272318605196 -0.09867169307727354 0.7077626159542452 1.2802387948269736 0.16170480647727842 2.9194518582238316 -0.5843349921817882 1.1295081355545789 -0.519744840216224 -1.3077260534691508 -2.247256880507903 1.5972414437596403 -0.021551476308951507 0.26445135130798997 -0.6214626175719249 0.19444605498881684 0.003399663936298563 0.7622213936031972 0.2407413296246193 0.7408579707375814 0.0026925922795746574 1.8962899822065156 2.185252906171176 1.1692912680980676 0.24456689714890173 1.8592949414830082 0.07384984269974552 0.5538501770370461 -0.3250726407507914 -0.16443852218984278 -0.9113543749724925 0.7038054405351484 -0.23926743058161973 -1.5922112867137552 0.04535673460639864 1.21155074355302 -0.5635346677051011 -1.5106574241610806 -0.9633872650645801 -0.48890494750416374 -0.9090224369260105 -0.21117251295372866 -2.848864365786506 -1.2933419588289348 0.7696973508934212 0.6809210654049386 1.069078530016393 0.4710605039291877 -1.849610356806021 -0.36581407651358755 2.8158529202728215 0.6860580985759696 0.33399188985864353 0.4636043945320994 0.7551603767138944 2.638863461709795 0.9565096122319651 1.4178892480777814 -0.4192546814434648 0.6220330660114236 0.2818522955562466 -0.43458079530720284 0.38617941291532615 -1.4214204460335644 -1.5094051087877691 0.2539605504800943 -0.6862371557831335 -2.026134333255056 0.14414207907995075 -0.469856150667049 -0.15223607990620164 0.681546118933296 0.5950905837530733 0.43650110282532323 -1.0159339277587485 -0.0456211779905193 -0.9168592474537892 0.3406246683290771 0.585540820825931 -0.0529042279446891 -1.2835219126379938 0.6914490053763748 -1.0821995998597242 -0.18393423379800458 0.1027400763655265 0.16499742449783777 -0.40572487875007673 -2.182562331339434 0.33290303622170075 0.20051447015286206 0.5319965778277019 -1.4502183187322437 -0.4376018716505762 0.9519209834627068 -1.8539759174231412 -0.06412814346316968 -1.196697086504811 -2.2686131899081228 0.6240009207521606 -0.15652072233254738 -2.48761156262943 1.1485615833299267 -0.7457792397824115 0.32734126282734016 0.4587742308617703 -2.1654214000069825 -0.3417015099262928 -0.025868360799276728 0.7520688551403627 -1.0468808049172982 1.5775469623527703 2.153003756564283 -0.079276163078719 -0.25119822643676865 0.03630333632752089 0.043166660505116576 -0.09927712174050303 0.7090622276033937 1.256323388747656 0.5011075833097378 -0.05892458573119528 0.18896001143516736 -0.6557627304638233 0.9969263631876945 -0.936146764335041 0.011390486498808014 0.21806658706902135 -0.2637002058581464 -1.6205457531442928 0.9734778805951204 1.6811434718217788 0.1989195462483959 0.0763202272932702 -1.7716942113069152 0.09119971841118064 -0.9321528511009648 1.6409043414350954 -1.4161399872806313 -1.738580818537139 0.6503561466458455 -0.7240995730469457 0.6266122514155736 -1.630323181492574 1.704494641308504 -0.09787784235492311 -0.6933867521750839 -0.5172179520838954 -0.027590048270615328 0.2476578185946376 -1.1838745054850937 0.17178012434288323 0.601987922436262 -0.7031018356640927 -0.19815456939584555 -0.9895042260994854 -0.034951956600802 -0.5375156103933011 -0.6126318047780627 0.004020769011489994 0.9239997667574764 -0.6075393802143829 -1.3828733649248754 1.2265154591370424 0.04910697917507953 1.8452527139979902 0.030442805205169662 -1.0089160306323612 -0.7383605406692487 -1.3036413448552036 -0.40179178197187054 -0.7327442999755033 -0.3202060366525157 1.527261371729583 0.2857731873243719 -0.020364587462504698 0.5680721795490965 1.0115337034220033 0.003915129548559553 -0.5222021201360773 -0.3106440828977586 -0.3835335066853856 -1.7306304934731755 0.45891438591114453 1.3067038819425025 -0.5660234613613212 0.04469820168305845 -1.8267444903981045 -1.8926351444078815 0.12355456827974828 0.4679948247053675 0.45183620697010507 0.5727677622506857 0.43879833353762965 -0.44638651686710856 -0.6645597781513679 0.5621097522301902 2.0747544553810537 -0.12451700030034776 0.04514034232130732 -0.09879532265256137 0.36002397860969465 0.29458217427743144 -0.4695824942799103 -0.6836706873039272 -0.024895061540291325 -0.41780371228813373 0.08157815543119129 1.8943447612805868 0.20671158706839146 0.6913123033951973 -0.3968585513947879 -0.568617071679411 -0.6362248783327802 0.31476205500221804 -2.1192321967552745 -0.9870841744956582 2.399718841412818 -0.12908661462200885 -0.5485999989518731 0.5484582110644712 0.8945339065105036 -0.07292480478364806 0.06018611198617659 -1.6997627304861895 2.079639334469647 0.008547528603945784 -1.614815895480641 1.8082355362823483 -1.561639038948175 -0.010419581299553253 -1.824928273350062 0.9247799751057291 0.2718131337242723 -0.23502670947131724 1.3485077916737955 -1.6315526838211467 1.5597191662015022 -0.3600502218369031 -0.25872477477609956 -0.9913076827894823 -0.9804913746249996 0.16889081604312267 0.1531863662990042 -0.10910564820629351 0.4839655455599461 0.9387461443085261 -0.11651438915896414 0.3982706262948235 -1.3495008716381292 -0.7901283528698048 0.5610011778851771 0.5268075369528218 -0.28224598654901983 -0.09514841157394298 0.21851629268202222 0.23071862184223768 -0.42741361840865993 -0.6011835453048132 0.16665956260378795 -0.4196932985842284 -0.1749099254781127 -0.7599579036443188 0.9417010428922213 1.071712821572534 1.659212635964727 -0.26180538847895674 0.38084794809450284 -0.9038213183670953 -0.5318043698397495 -0.817924876989988 -0.6178387833676293 -0.6668669301435809 1.143980427494433 0.17301580091306906 -0.11998827785996469 -0.0894744959587671 -1.9434480332851365 0.4950869100620895 0.5790834618063329 -1.1927611796447435 0.1993625324917692 0.703173290134564 -0.30151220809145435 1.2296991806172777 -0.7481196208114426 -1.6080619185683926 0.17552552985431602 -0.14372959808934457 -2.111430379685782 0.4180698244291891 -0.3909894801999109 0.7912941438029281 0.731782237438657 0.9904174636023974 -0.49294854225918394 -0.20229800890991 0.24177619969902925 1.9613335029407273 0.43539560604162814 0.13593462837942305 1.5635682823838253 1.496317427816082 0.14367929200571236 0.5299841866557798 0.07376341620170111 -0.6430256909335825 -1.0113468085026414 -1.0632560259688018 -0.15919869107130005 -0.9978074329114289 0.14036840746315407 -1.8069921965492763 -2.1803226342795465 -0.3631045412474083 0.3633070894710184 -0.8146293925437227 0.2941374804642633 1.317295862921397 2.420077077301993 1.635107779649357 0.1448082128313023 -0.05284637687218712 -0.3045497474792959 -0.5239012198207841 0.37504127822294775 -1.2513496588672766 -0.34771504309379536 0.11839416532827769 -1.4025707162647134 0.43485526037224725 -1.5334481547566874 -0.5219901982884056 -0.5428694611032429 -0.16212326012112452 -0.6260513660049227 -0.14673610546170499 1.6112603199348619 0.4076429134633978 0.30320797524053783 -1.1094149399651616 0.7026533291662358 1.0020228987022488 0.03839945201310563 -1.0935915458218153 0.9925514188698974 -0.326241379663055 -1.3706534332275473 0.548863573459214 -0.1941411179249674 0.6139057924944941 0.3457210323140162 0.7905072349857739 -0.4870418287442308 1.3355530072441573 -0.3573204587541241 1.704977256152428 -0.4333981805570912 1.4505694155852629 -0.48833871518581845 -1.9907772497805725 -0.9032806084282116 0.32949410204621354 0.8550975094369456 -0.8820138647806799 0.544272338444327 0.3640045270383693 -0.7370972964952707 0.4701174282941499 -0.07396055112918867 0.7502953690552401 0.15532744619595565 1.2660105635142498 1.638226230217762 1.2636523653558414 -0.9909295045356001 -0.1374035379954653 1.0496164355995048 1.6098487355535631 0.1520160155358434 0.7706567978932143 0.727177632721743 0.5472366313463988 1.6845635661023761 -0.12434469991136153 -0.46093258363296646 -0.9548034807852449 1.9865253576964446 -0.3843980845244743 0.7866252540300771 -0.8016947095637382 1.269234856389921 0.24007240639497054 -1.7844180149668396 -0.7817179574271044 -1.1394381604065091 1.3593634833261508 0.19886184177548155 -0.10043767153389967 0.30346378689056347 1.1651590479158072 -1.6004527377486943 1.5379723105885625 0.24027533946871105 1.4560610002415915 0.8615261352654188 -0.21149545663110472 -0.1516539094546444 0.6341665041858143 1.5747384986443773 0.6288836493262121 -0.26624168708724677 1.1710747889491215 1.5372407399301162 0.2260092969930879 1.7514102705280972 0.6903369726340295 -1.6221242592094989 -0.6802999672732197 -0.6240773090025327 -0.4927682183401592 1.724234298339097 -1.2059547675843685 -0.014053649885734187 -1.0916205434722155 -0.29960196240470593 0.12066979094048084 -0.22471539310840521 -1.0830473247279826 -0.6070544051383182 -1.0287762958572444 -0.4794184446680452 -1.3458591063778036 1.3815787134880917 0.46633711165627567 0.1470262156056477 0.8247314685466606 0.29276186714154 0.5949266791543513 0.13194510428502942 1.249631711336616 0.24179218263574628 -0.0846594455163161 -1.9872348927737757 -1.386459519888143 0.47590754607322516 -1.1187167733860541 -0.33378919553523984 -0.8085041330827987 -1.0352345802734662 -0.6823551164531005 -1.0617262590899479 -1.1820208389141045 -0.13879921073915516 -1.6341723798773664 -1.1167401968296757 -1.6441705983150454 0.5714851528420126 1.085123528189368 1.9269303538519906 0.33371460342877707 0.49954163608301994 -0.04622624896107102 -0.6206854214993487 1.0745789417152312 0.1883186173567352 0.2605767801676398 0.43468974835626595 1.0643031311191635 -0.3697461700266163 -0.4641892132298643 -0.10116544558314146 0.4782812605945359 -1.2724980762187212 0.6569646307773417 1.200879120337582 0.24279783372996336 1.3004088939562257 1.2562427505825113 -0.9164250328452483 
0.7544905463746444 0.1309921022014663 0.7873742191066372 -0.10954681061181505 1.128301733617841 0.1423175452096367 -0.7646247669901671 -1.57984695733634 1.0009001761776075 -0.3078878555759235 -3.307009173626214 -1.4218503752815872 0.8419504517497669 0.8313029850877328 -0.7938849863907951 -1.8680762124154497 0.06699576744982141 -0.9167114538925767 0.049332345137083435 -1.7194973438990193 0.12574853186829366 -0.42051247764917016 -0.7755248996983178 0.20146539767268878 -0.4642532686704383 0.41012913229176245 0.13158924414392792 0.06839848703303081 -1.8816646660378684 0.810345350111315 1.0191159460776742 1.7891234558603257 -0.8432050928442245 -1.787935611122472 1.6923251191671922 0.4233297653578589 -0.1110755366128568 -0.5842694046205025 -0.20892958682180776 -1.749361294528995 -0.3456519362050946 -0.0031334915291744026 0.5084348225707561 -1.6870166468570058 -0.6360856621271144 -0.2269051314827929 0.7900703680351387 -0.7778848569758505 -1.2511557763742716 -0.736025550635012 0.2933326120151394 -1.3067207000899812 -0.7387728803733534 0.05991154690393578 1.8074583675489961 -1.1966039515921754 -2.0404729853644206 -0.7245537141663283 -0.6273123797407072 -1.2461523410869064 2.6833235784358465 1.3683010385276133 0.025567952267564156 -0.414882486541352 0.26740675868552055 0.4968952228026883 -0.20998901684277596 -0.619705421252533 -0.010405205633953932 -1.1660012102752007 1.0491968047741864 -0.10353819239921794 -0.05060519193351795 0.7912667310045836 -0.09382010992652783 0.7225826643489481 1.6892582346145777 0.5098138087798151 0.6634195474738839 -0.20704648627822964 -0.05223295670169919 -0.30803489432427245 -1.9148288127216793 0.20264690972924407 0.5935115109539446 -0.2763385570921181 -0.9483401130268412 0.3710580416306625 -0.9026487736569556 -1.7741534703140145 -0.07716963636035092 0.17415215787453625 -0.04739053765513354 0.10077850096289157 -2.534290658769168 -1.4905925095236565 -0.9327323320392348 1.6467804153218364 -0.026185772613637585 0.2523980636032672 -0.04303043637987911 0.3501259139316122 -2.1789485575319945 -1.8018546318883086 -0.28066677639388027 1.7795193968927845 0.35054531426973085 -1.1946319492234452 0.3118695147139203 -0.47197980865142064 0.5705326999012371 0.5209523947470351 -1.048861921747807 -0.008005737405058807 0.08555516437841777 -0.2002204185455622 -0.026356418503669796 -0.28204631644778255 -1.4598008545617973 1.6921923932655631 -0.6221801009197683 -0.5587065624203396 0.4591242647465422 -0.13120106274950516 0.4976468565838963 2.4461148815172593 0.6489770464800476 -1.341419422808258 -0.26841078249310235 -0.29216728768194583 -1.8653008407960991 0.29993599427461526 0.6750750524270215 -0.2748468170279534 1.091053522058607 1.9552877999718463 -0.37001031525277417 -1.2432490269030587 -0.2897414678661464 0.9203822565484169 -0.20928523294261997 2.2914524769739173 0.3582181068177336 0.08183336744630564 0.16871166282838104 0.09646016221132529 -0.10614951111502977 1.0648123310613014 -0.9576110628472432 -1.2716896546138032 0.3464917486455752 0.18207943364430176 0.29315211378451483 1.9819565901290859 1.415340321271576 0.9447591456535349 -1.0695050521588272 -0.9316085443703566 1.5696893176187106 0.20940890215056907 0.032851537374405756 -0.21704511186411585 -0.19814595409234836 1.3299541556326044 2.779008056656335 -0.4100218586943192 -0.221454679463088 0.24187697165885538 -0.9651761728689267 -0.1013853947235435 -2.7589140473226452 0.3414493441742766 1.9865779476949126 -2.3590396029989 0.2067374622972406 -1.9972723306436295 0.6238715765030157 0.7767235824302912 -0.4989479940796271 -0.24813682259787934 1.0768378241294818 -0.9287042698267665 1.7567614008745625 -0.6573869163584368 -1.0298030235529294 -0.5057531600552341 -0.17028493613437462 -0.6274136954943873 0.42544528071174703 2.3222401923459195 0.5736663055254005 -0.8155888200518783 0.4666870843635006 -0.8013508069475455 -0.5975490862613775 -0.2511783847009595 -0.34324918619825107 0.008240488016854 -2.684161761102273 -1.2380777956605915 -0.9442883378690016 0.07846747953296099 0.14573406391249394 -1.4031795478949967 -1.8210285982081051 -0.7350882954354984 0.9755579852905174 -0.3803948853736057 1.3239853885863648 -0.21255744180048144 0.06292283267840067 -0.4164449919941358 0.06305429570778188 -0.5407809325555584 0.7475354179807584 0.9019624645682373 0.0807718912373511 -0.7636876154896776 -0.8190683421194922 -0.7496539597902093 0.17018585002494913 -1.1009538364051281 1.0073551088821395 -0.51856741606243 -0.9751861293284613 -0.9131023896534055 0.28830161167080576 -1.609447839281651 0.9884271045621877 -2.4136599674154087 0.20765147718090543 -0.13151556124980696 -1.2039277176878578 -0.7588214190128354 1.1398030177928888 0.7322956879864267 0.9726624993632578 0.8066791517422356 0.24136642616418552 -0.9041145965540334 -1.0064927145714957 0.07601606006490376 -0.6688199998545654 -0.09287278309643775 1.151334696594079 -0.6289111123645518 -0.25166249433950727 1.401987323749245 -0.5970572502392305 1.5153770821330594 -0.6112871119270838 -2.459467442199528 0.8854971508670002 0.6109965804190122 0.37348117176628165 -1.4179682699777763 -0.8117525139816985 -0.6251182509333367 -0.9330380473308373 -3.778117760885606 -2.148640495012317 0.9582574880810777 0.6184459637911051 1.4701656553202544 -0.6839983495324243 -0.1569820601307799 -0.9460497103079444 -0.48136512637816053 -1.9043379926601267 -1.662084224333393 -1.3917454740492343 -0.3201123167352741 -0.2483002031836917 -1.448190102054832 -0.06300760502172645 0.5332463210078672 -0.014756658651364302 -0.2928411144334345 -0.36652657063669786 -0.5570785252249397 -0.6280537454003108 0.4277415681122301 0.6062318422614902 -0.8414852022427397 -2.321678915949894 -2.963897296054568 0.7759758545761518 -0.9290114784565676 -1.5298430382524224 0.27582126714164923 -0.1782370845868796 1.798192444677403 0.8073770005743957 0.09960794728538576 -0.18955933668008515 -0.3770119227820214 -0.09339458330768817 -1.1286783159206255 0.5206653998303178 -1.115079087991779 1.5167420680268076 0.02028815737792285 0.4733671327682946 -0.4523680593387645 -0.09776695708609409 0.11719946522248835 -1.078617246953292 -1.1256260448239621 -0.7301743621606107 -0.4404824872758544 0.2716689650097752 -0.2825268688432829 1.0353393886652893 0.5104665582679445 -1.277278089601379 -0.8129850316066878 0.9186453326717487 -0.5804071032329593 0.4323906097692308 2.536437775115327 -0.3768613225268445 0.6134629065493653 1.8905916686092514 -0.9218675403411463 1.2363542164352153 0.25291944726801485 0.5615366137825386 0.1261007568804396 -1.1525251196687605 0.08500015050323517 0.9360438503269713 0.4606566399316717 1.0483505874731573 -0.372516310300426 2.3343769349148933 -0.38151781599322016 -1.1559084631260739 -0.8877016347783611 -0.4622070837551546 -0.073717696520383 -0.6706319889227746 -0.23259762900019726 -2.0334352207747983 -2.1293800052779916 -1.5916963053091042 0.9522752352614803 0.912458191911001 -0.777484366662845 0.44487375551446706 1.4924648091557677 0.6068539873169901 0.31683743247283136 0.5650814059805259 -0.8979305372514965 0.4512828115000371 3.1339555315734264 0.916069707608241 -0.10238019387350114 -0.4437470571050843 0.3615006736770344 0.24384900877165647 -0.9181254722820407 -0.7580953474897704 1.4674399946099574 0.14404097866308502 1.2366103779516597 -0.22275308474191363 0.7490589190516203 -0.5676683372331116 -1.3649414412221836 -0.5179218625220747 1.0574273073495328 0.9748337964905383 1.5477479047096234 0.0172865360013499 -1.4556705544813615 0.75642638181796 1.6518298505792999 -0.8668604056057208 0.21772661719141184 1.4756944327308255 -1.059143106296918 -0.013280627128143334 -0.13253291542232012 -0.5662468957269252 -0.999335107621471 0.14414567420738003 1.229018166565721 -1.0314170417922361 -0.7317559113615651 0.9256383795736904 0.5706100466771189 1.344963958268045 -2.9392856560176344 -1.5450380448510064 -0.62396329988937 1.4206588500327533 0.6381467386657943 -0.5615410117322853 -2.027215279326306 -0.28302305109163933 -0.3581237877262735 0.15548777490076304 1.07015760547846 0.2554506400480166 -0.1313412129448711 -0.674118391755055 -0.1999984695661773 -0.846104029614367 1.4300615529092586 -0.8327864696550282 0.6647617863061449 1.3151401052965568 0.22261755184133789 -0.4134355526884998 0.31679373390965737 0.03084446601225645 -0.15899470455534853 0.6880997123252798 -0.5101810631883255 -1.6214104478175517 0.8301905039556341 0.2166438190993049 -0.5795152086617661 0.3171222510368169 -0.1491155301897222 -1.6968767331637955 1.1424937965587854 -0.3142722276710356 -0.8249599858650403 0.7011634574488352 -0.11872711964497472 0.35916451193609444 -1.1629887757671977 1.6353707409959237 0.6374234124750441 0.2101310493738585 0.7495441019730339 -0.6495186458176191 -0.5309430593038071 -0.8160057547564068 0.30508874290847904 -1.1522039785602352 0.08827104675916621 -1.6641030905302383 -0.49893725416695284 -1.7393037817699852 0.036062391646596914 1.3947350606009195 1.4674393672460877 1.2617620229478663 0.9471529183189411 0.4163688541383593 -0.9649568086516495 -0.4404579916938299 -0.8496845133959426 -0.9497209678552138 0.6360328799813739 0.6916224588797963 0.8075813264714927 0.44560505788586163 -1.5618137728661456 0.11856088346739672 0.2829580419379533 -0.7727118151856686 -0.3094151569125096 -2.3758304864440656 -0.5259142793062003 0.19267438376409124 0.33444351159952246 -2.518531168224519 0.27837971242177034 2.656164631997992 0.4072615446727833 1.3847146047811236 -1.4401767527888167 -1.064535284034892 -0.3332949416063676 0.017103862286166928 2.1409103340825144 0.7338704888278622 0.8095800129519167 0.968323186314125 -1.533270521363888 -0.5596954304965985 -1.2855487529536742 0.05907245431690002 1.0089141342493313 -0.5570668003275762 -0.8557695032297142 1.6626302549242886 -0.00040989991840704933 0.8158825393321049 0.7397399766808731 -1.5939455286759618 -1.4987995200221473 0.24916556338194681 0.3104368083108484 -0.30455222291650386 1.2089974481068042 -1.393981383545143 -1.1358075110295018 0.6081838667240922 -1.2963649165936626 -0.018190347042375644 0.942335436951767 0.12935543206112715 0.10485020262819032 0.7254773691644861 -0.6001823033397087 -0.8007660709892727 0.3162304839582584 0.08605658907692067 -0.9232388562252969 -0.7167031506424525 -0.35209773766183555 -0.562091555592518 -1.2932995715912898 0.28243081210233273 0.24952490643736067 -1.5401832044749977 -1.3240649838685707 -1.809133057347936 0.7170063548332133 1.2619253671558035 -0.5352286338324224 0.14943635872086433 -1.2020038883817834 -0.8357380411208233 0.6123219655525365 0.5902858590155823 1.5178236937352463 0.5260959616486484 -1.1789144074544453 -0.31989084073361984 0.2740540500831118 -0.3289843384722908 -0.7299417274250191 -2.187204676443827 0.7747216806990646 0.8984693247588381 -0.11639599138206864 1.0942872668247892 -0.6860765414562544 -0.3473627931938648 0.005075401509760202 -2.1319664097916426 0.7162570155943679 1.4944557026541183 -0.0429510750833244 -0.8768780781709348 -0.10708259656864395 -0.20388343017741553 0.6806967523448887 1.4460482608510754 -1.8620442773224697 0.48916924770960096 -1.1000595935094621 0.7026922823112662 -1.4485260316870063 0.28752508048454195 2.3250337967524715 1.0514179896034215 0.1450767664351619 -0.44965507793696513 0.07105851180658954 -1.1194003584015257 -0.30527766941561096 0.6242602400588476 0.9959026801680033 0.8309767254821923 -0.14982855217080812 -1.787587237435864 -0.46074056141406533 -0.7476645123232969 -1.2910731044955344 -0.13181350344340323 0.45926944377515 0.2753883189967936 -0.059313427366782724 -0.7995382040420672 0.008398078785425856 -0.7585577723953294 -1.5932037728701014 0.04419228962185669 0.08946967766325876 -0.49956464400006506 -0.42207480934188435 -0.47782905057043606 -1.5304101227147542 -1.2802548719057865 -0.03673721188037457 -0.7256879554756457 -0.01612993248674529 1.6300849655099747 -0.552661076038851 -0.6520946678510741 0.47227676764321397 -0.5376548636430831 1.5408990743694015 -1.3464263401176049 2.463085221925274 1.045411049052095 -0.7521910986848072 -0.07071584607097534 -0.6419783139146646 -0.9275108451207104 -1.1936256278932438 -1.076107024625853 -1.0129988938655956 -2.069614713859338 0.09927293229134519 -0.09984694984851647 -0.1869327403364987 0.5893431481480995 0.09052743480331558 1.53944258954569 0.5844492965351101 -0.9882700918713486 -0.5316009361600862 -2.2678136920486605 -1.5992167392971117 0.5031695257780417 -0.4324282771551258 0.5919641490359433 -1.5416521887410362 0.4182751700297932 -1.2738459775569644 -1.2783461239954919 -1.0585808909904062 -1.7743940599937436 -0.3308559417367931 2.026608869073996 0.47176100319754305 -0.18990959760973786 1.0715845079849537 -1.4454923106934876 -0.2540679497743038 -0.3461546906113939 -0.90139871064071 -0.74931036571859 -0.4858299635546173 0.3828610161414896 1.0177190249261514 1.0786528123717172 -0.12363165006702538 0.6971041923269197 -0.920089121564647 0.06971360632689148 -1.211339478539 1.045834194661581 -0.0022640620363998092 0.8390817010178081 -0.3310696748101022 -0.33954711993953257 -0.3477599397693114 0.4173195501602363 -1.6328567634371187 -0.7895077015537922 0.6762473979205114 -0.9297947474335536 -0.7076088241082163 -1.9454209837279328 -1.7311227550766868 -0.06467214110873945 1.663982150698757 -0.7801201632363233 0.7762597038222513 1.0443638805195843 0.23010626252808447 -1.1502946864560957 0.763666779030603 0.15303300631924796 1.6309882657798798 0.440550383307323 -0.8452973577775216 -0.8747666446916459 -1.3479442174740288 -0.4551180837074674 1.5735924103536443 -1.1046136711242138 1.211282117573035 1.0623468366233206 -0.43630431819492976 -0.7061909904142497 0.10637852356092346 0.34999169914110234 -0.03323884351261704 0.9247162522124667 0.8300172803909722 -1.5599030703220291 0.030918903989020228 1.5054841043849976 0.06147475487548164 0.5593556161323382 2.1665429981619773 -0.9911957158988849 1.3071951004595235 0.11290917895157228 -2.202231122102233 0.8201406512799773 0.20133718871855205 1.7123808294625744 -1.4755310196476763 0.9032624832003959 -1.0272555187963337 -0.682039110935388 0.2970985266817363 -0.7152473140469406 -0.2818401890143933 1.5456978207010121 -0.202882103136045 -0.3335165906135732 1.3459000770268947 1.1159946821264228 -0.025908804298555882 1.0602513323904355 0.4129759758878522 -0.9870759074146759 -0.9172589905520525 1.2711194580341596 0.03875347288403101 0.5494204692769482 -0.24649428344836297 -0.6094919754751363 -1.3143979052267556 1.2960966643539815 2.1075687980899374 1.6180716591063382 -0.6088654070783981 -0.16602481213058665 1.2524467075032097 0.8144058656808998 -0.9885349923398731 -0.5638061987183702 -0.021326901078676155 -0.5686762598549439 -0.5564607996772981 -0.05139825061379277 -0.3252161103346183 0.29848607103523367 -0.6226879022101085 0.9052465842253316 -0.8394420342927178 -0.536616699693746 1.98489897157221 -1.0264873829445111 -0.010721947242405628 -0.5191898889191147 1.579513131069319 -0.18734173752371325 -0.2882517711046176 -0.016404391769344 2.1960887265451614 0.4920116565361598 0.2066069702110411 1.0739461814328624 0.9580700003247403 -0.744566713638368 0.39034607014859507 -0.5489513335448444 -0.5570991470247834 0.24203091782195676 -1.8406357401245876 -1.1092445368876593 2.333908678548579 -1.4045624780486665 1.159792299488364 1.4076925176323591 1.1690790535916629 -0.48459709164967757 0.0512360941140469 1.7701193602197642 -0.1634968582970747 1.203014606028388 0.8264417634711448 -0.8537470428183607 -0.11446727336719488 0.5997101043210895 -1.1614900618582198 -0.3917965646771421 1.419712817952213 -2.532110332207354 0.34188820670506515 
